svm_type c_svc
kernel_type rbf
gamma 0.5
nr_class 2
total_sv 6
rho -0.291811
label 1 -1
nr_sv 4 2
SV
0.135293845971296 1:-2.2449629 2:0.28143338 3:12.053469 4:0.0091151186 5:0.13267753 
0.6039125055585511 1:-1.919526 2:0.31107779 3:10.467347 4:0.010138276 5:0.14317082 
0.2776797851638567 1:-2.1936582 2:0.28850481 3:12.145306 4:0.0081595167 5:0.1768359 
0.6056899304449119 1:-2.5159166 2:0.27629111 3:13.767347 4:0.0084209911 5:0.10687253 
-0.8120653385907504 1:-0.59819011 2:0.49580072 3:2.262449 4:0.036212329 5:0.035356899 
-0.8105107285478654 1:-0.34766271 2:0.60843217 3:1.2767347 4:0.049118117 5:0.038430039 
