svm_type c_svc
kernel_type rbf
gamma 0.5
nr_class 2
total_sv 122
rho -0.560146
label 1 -1
nr_sv 67 55
SV
1.058358304843601 1:-0.75010542 2:0.53103643 3:2.0666667 4:0.038197281 5:0.10282522 6:-0.83377187 7:0.52406963 8:2.3571429 9:0.036339025 10:0.099089803 11:-0.25821316 12:0.72333335 13:0.69047621 14:0.055238099 15:0.11665899 16:-0.7468285 17:0.54234694 18:2.005102 19:0.038955123 20:0.10386114 
0.2193040285680653 1:-1.4801081 2:0.38649861 3:4.3523811 4:0.029444446 5:0.24959327 6:-1.5603968 7:0.36734925 8:4.6887756 9:0.029154519 10:0.24569665 11:-0.18576305 12:0.76190478 13:0.53333335 14:0.050555559 15:0.31499315 16:-1.4236243 17:0.39656478 18:4.2244898 19:0.030208767 20:0.25224154 
0.219939523340932 1:-0.58376854 2:0.58047621 3:1.604762 4:0.038605444 5:0.057099744 6:-0.54219157 7:0.58877552 8:1.5204082 9:0.040477927 10:0.056675226 11:-0.2446463 12:0.73952382 13:0.56666668 14:0.061326533 15:0.068720554 16:-0.58853504 17:0.57806123 18:1.5051021 19:0.040738234 20:0.056352242 
1.984668370037422 1:-0.58376854 2:0.58047621 3:1.604762 4:0.038605444 5:0.057099744 6:-0.54219157 7:0.58877552 8:1.5204082 9:0.040477927 10:0.056675226 11:-0.2446463 12:0.73952382 13:0.56666668 14:0.061326533 15:0.068720554 16:-0.58853504 17:0.57806123 18:1.5051021 19:0.040738234 20:0.056352242 
0.00874178890079064 1:-2.6697441 2:0.34624651 3:5.8238097 4:0.045090705 5:0.11542348 6:-2.4833344 7:0.36518608 8:5.6122449 9:0.047298002 10:0.1172055 11:-0.15636601 12:0.8214286 13:0.35714287 14:0.10064626 15:0.21864063 16:-2.7489091 17:0.35025626 18:5.9744898 19:0.045775199 20:0.11220968 
2 1:-0.8305599 2:0.50425771 3:2.504762 4:0.036349208 5:0.13308263 6:-0.96789163 7:0.47528627 8:2.9030612 9:0.033931175 10:0.12427462 11:-0.21980739 12:0.74190478 13:0.61904764 14:0.057902498 15:0.16043664 16:-0.70462356 17:0.54120649 18:2.1989796 19:0.037028843 20:0.13563274 
1.249497988475578 1:-0.91126848 2:0.52714287 3:1.8714286 4:0.079727894 5:0.034996576 6:-0.87102809 7:0.53418367 8:1.7397959 9:0.079693357 10:0.036417003 11:-0.069194523 12:0.90476194 13:0.19047619 14:0.1612245 15:0.064820436 16:-0.94297597 17:0.5112245 18:2.0306123 19:0.074890672 20:0.032780252 
2 1:-0.91126848 2:0.52714287 3:1.8714286 4:0.079727894 5:0.034996576 6:-0.87102809 7:0.53418367 8:1.7397959 9:0.079693357 10:0.036417003 11:-0.069194523 12:0.90476194 13:0.19047619 14:0.1612245 15:0.064820436 16:-0.94297597 17:0.5112245 18:2.0306123 19:0.074890672 20:0.032780252 
2 1:-0.8305599 2:0.50425771 3:2.504762 4:0.036349208 5:0.13308263 6:-0.96789163 7:0.47528627 8:2.9030612 9:0.033931175 10:0.12427462 11:-0.21980739 12:0.74190478 13:0.61904764 14:0.057902498 15:0.16043664 16:-0.70462356 17:0.54120649 18:2.1989796 19:0.037028843 20:0.13563274 
2 1:-0.54689893 2:0.60190478 3:1.3904762 4:0.049047621 5:0.033995059 6:-0.65383042 7:0.56611646 8:1.6377551 9:0.046686278 10:0.03178724 11:-0.26781199 12:0.73190478 13:0.66190478 14:0.06879819 15:0.048534143 16:-0.51235089 17:0.61734694 18:1.3163265 19:0.051241671 20:0.035850141 
2 1:-0.91126848 2:0.52714287 3:1.8714286 4:0.079727894 5:0.034996576 6:-0.87102809 7:0.53418367 8:1.7397959 9:0.079693357 10:0.036417003 11:-0.069194523 12:0.90476194 13:0.19047619 14:0.1612245 15:0.064820436 16:-0.94297597 17:0.5112245 18:2.0306123 19:0.074890672 20:0.032780252 
2 1:-0.91126848 2:0.52714287 3:1.8714286 4:0.079727894 5:0.034996576 6:-0.87102809 7:0.53418367 8:1.7397959 9:0.079693357 10:0.036417003 11:-0.069194523 12:0.90476194 13:0.19047619 14:0.1612245 15:0.064820436 16:-0.94297597 17:0.5112245 18:2.0306123 19:0.074890672 20:0.032780252 
2 1:-0.54689893 2:0.60190478 3:1.3904762 4:0.049047621 5:0.033995059 6:-0.65383042 7:0.56611646 8:1.6377551 9:0.046686278 10:0.03178724 11:-0.26781199 12:0.73190478 13:0.66190478 14:0.06879819 15:0.048534143 16:-0.51235089 17:0.61734694 18:1.3163265 19:0.051241671 20:0.035850141 
2 1:-0.8305599 2:0.50425771 3:2.504762 4:0.036349208 5:0.13308263 6:-0.96789163 7:0.47528627 8:2.9030612 9:0.033931175 10:0.12427462 11:-0.21980739 12:0.74190478 13:0.61904764 14:0.057902498 15:0.16043664 16:-0.70462356 17:0.54120649 18:2.1989796 19:0.037028843 20:0.13563274 
2 1:-0.8305599 2:0.50425771 3:2.504762 4:0.036349208 5:0.13308263 6:-0.96789163 7:0.47528627 8:2.9030612 9:0.033931175 10:0.12427462 11:-0.21980739 12:0.74190478 13:0.61904764 14:0.057902498 15:0.16043664 16:-0.70462356 17:0.54120649 18:2.1989796 19:0.037028843 20:0.13563274 
2 1:-0.8980065 2:0.54571429 3:1.7428572 4:0.097312928 5:0.032905399 6:-0.97961756 7:0.52806123 8:1.8622449 9:0.094088404 10:0.031399702 11:-0.054001518 12:0.91904764 13:0.16190477 14:0.18011339 15:0.062278681 16:-0.8303577 17:0.56224489 18:1.622449 19:0.099619947 20:0.034297348 
2 1:-0.58937364 2:0.58075631 3:1.6142858 4:0.048390024 5:0.036056961 6:-0.6968976 7:0.54876952 8:1.9540816 9:0.044590797 10:0.032799246 11:-0.2999964 12:0.72000002 13:0.80000001 14:0.068265309 15:0.045892757 16:-0.64007678 17:0.56428572 18:1.6428571 19:0.046269784 20:0.036505242 
0.1318365339022594 1:-0.92476981 2:0.52761906 3:1.9047619 4:0.083752837 5:0.034449222 6:-0.88455072 7:0.53469388 8:1.8367347 9:0.085706478 10:0.034784092 11:-0.054001518 12:0.91904765 13:0.16190477 14:0.17267575 15:0.066298161 16:-0.93010536 17:0.52295919 18:1.9948979 19:0.083090383 20:0.032825428 
1.802015958881714 1:-0.7379139 2:0.52817928 3:2.152381 4:0.037301589 5:0.093149997 6:-0.81257196 7:0.5159964 8:2.382653 9:0.035805394 10:0.090094053 11:-0.25715174 12:0.73238097 13:0.63809525 14:0.058900229 15:0.1126567 16:-0.7476782 17:0.51416567 18:2.1428572 19:0.038707831 20:0.093839449 
0.3794594289891285 1:-0.70642339 2:0.55333335 3:1.5333334 4:0.063027215 5:0.037983212 6:-0.73730338 7:0.53673469 8:1.6122449 9:0.062903477 10:0.036841929 11:-0.12436625 12:0.86666669 13:0.26666668 14:0.12353742 15:0.057239753 16:-0.69707028 17:0.55459184 18:1.5153061 19:0.063905666 20:0.038172484 
0.02865174772268493 1:-0.90364544 2:0.54142858 3:1.7857143 4:0.091598642 5:0.033570455 6:-0.99198375 7:0.52704082 8:1.9132653 9:0.091563411 10:0.032158428 11:-0.056203988 12:0.9166667 13:0.16666667 14:0.17429706 15:0.063344184 16:-0.83938551 17:0.55510204 18:1.6734694 19:0.094114433 20:0.034822058 
2 1:-0.90364544 2:0.54142858 3:1.7857143 4:0.091598642 5:0.033570455 6:-0.99198375 7:0.52704082 8:1.9132653 9:0.091563411 10:0.032158428 11:-0.056203988 12:0.9166667 13:0.16666667 14:0.17429706 15:0.063344184 16:-0.83938551 17:0.55510204 18:1.6734694 19:0.094114433 20:0.034822058 
2 1:-0.70642339 2:0.55333335 3:1.5333334 4:0.063027215 5:0.037983212 6:-0.73730338 7:0.53673469 8:1.6122449 9:0.062903477 10:0.036841929 11:-0.12436625 12:0.86666669 13:0.26666668 14:0.12353742 15:0.057239753 16:-0.69707028 17:0.55459184 18:1.5153061 19:0.063905666 20:0.038172484 
0.1231226599943391 1:-2.4613612 2:0.40193278 3:4.7000001 4:0.079331071 5:0.1462124 6:-2.4916169 7:0.39636854 8:4.6581633 9:0.08143742 10:0.14704114 11:-0.06946746 12:0.89761906 13:0.20476191 14:0.14488662 15:0.25868337 16:-2.3848922 17:0.39888955 18:4.7806122 19:0.07636141 20:0.14427632 
2 1:-0.7379139 2:0.52817928 3:2.152381 4:0.037301589 5:0.093149997 6:-0.81257196 7:0.5159964 8:2.382653 9:0.035805394 10:0.090094053 11:-0.25715174 12:0.73238097 13:0.63809525 14:0.058900229 15:0.1126567 16:-0.7476782 17:0.51416567 18:2.1428572 19:0.038707831 20:0.093839449 
0.3801920034471847 1:-2.7363856 2:0.30871149 3:7.7476193 4:0.044342406 5:0.17329854 6:-2.8512878 7:0.31227953 8:8.1683675 9:0.043367347 10:0.16752637 11:-0.093130443 12:0.86428573 13:0.27142858 14:0.089467123 15:0.33572245 16:-2.6144031 17:0.3194016 18:7.4285715 19:0.044512703 20:0.17897085 
2 1:-0.58937364 2:0.58075631 3:1.6142858 4:0.048390024 5:0.036056961 6:-0.6968976 7:0.54876952 8:1.9540816 9:0.044590797 10:0.032799246 11:-0.2999964 12:0.72000002 13:0.80000001 14:0.068265309 15:0.045892757 16:-0.64007678 17:0.56428572 18:1.6428571 19:0.046269784 20:0.036505242 
2 1:-0.8980065 2:0.54571429 3:1.7428572 4:0.097312928 5:0.032905399 6:-0.97961756 7:0.52806123 8:1.8622449 9:0.094088404 10:0.031399702 11:-0.054001518 12:0.91904764 13:0.16190477 14:0.18011339 15:0.062278681 16:-0.8303577 17:0.56224489 18:1.622449 19:0.099619947 20:0.034297348 
2 1:-0.58937364 2:0.58075631 3:1.6142858 4:0.048390024 5:0.036056961 6:-0.6968976 7:0.54876952 8:1.9540816 9:0.044590797 10:0.032799246 11:-0.2999964 12:0.72000002 13:0.80000001 14:0.068265309 15:0.045892757 16:-0.64007678 17:0.56428572 18:1.6428571 19:0.046269784 20:0.036505242 
0.9028748237249938 1:-0.44028426 2:0.62714287 3:1.1 4:0.048854877 5:0.057698124 6:-0.51886129 7:0.58979593 8:1.2857143 9:0.04517649 10:0.055649135 11:-0.21362701 12:0.76904763 13:0.51904763 14:0.070725626 15:0.06755782 16:-0.41617169 17:0.62244898 18:1 19:0.048573511 20:0.059459212 
2 1:-0.70642339 2:0.55333335 3:1.5333334 4:0.063027215 5:0.037983212 6:-0.73730338 7:0.53673469 8:1.6122449 9:0.062903477 10:0.036841929 11:-0.12436625 12:0.86666669 13:0.26666668 14:0.12353742 15:0.057239753 16:-0.69707028 17:0.55459184 18:1.5153061 19:0.063905666 20:0.038172484 
1.90254100641424 1:-0.70642339 2:0.55333335 3:1.5333334 4:0.063027215 5:0.037983212 6:-0.73730338 7:0.53673469 8:1.6122449 9:0.062903477 10:0.036841929 11:-0.12436625 12:0.86666669 13:0.26666668 14:0.12353742 15:0.057239753 16:-0.69707028 17:0.55459184 18:1.5153061 19:0.063905666 20:0.038172484 
2 1:-0.44028426 2:0.62714287 3:1.1 4:0.048854877 5:0.057698124 6:-0.51886129 7:0.58979593 8:1.2857143 9:0.04517649 10:0.055649135 11:-0.21362701 12:0.76904763 13:0.51904763 14:0.070725626 15:0.06755782 16:-0.41617169 17:0.62244898 18:1 19:0.048573511 20:0.059459212 
0.1546703681810757 1:-2.0442595 2:0.4509804 3:4.2476192 4:0.078990935 5:0.18145286 6:-2.0537995 7:0.44483794 8:4.1938775 9:0.079966678 10:0.18219082 11:-0.057086242 12:0.90952382 13:0.18095239 14:0.15555556 15:0.28835493 16:-2.0048134 17:0.44939976 18:4.3367347 19:0.077038211 20:0.17904423 
0.006328453723184804 1:-2.0860578 2:0.36109029 3:6.1619049 4:0.036904764 5:0.19400728 6:-2.1000541 7:0.34785236 8:6.2551021 9:0.037106934 10:0.19263544 11:-0.1444614 12:0.81523811 13:0.38095239 14:0.074161001 15:0.29582272 16:-2.0418479 17:0.35225027 18:6.1479592 19:0.036404102 20:0.1944448 
2 1:-0.58937364 2:0.58075631 3:1.6142858 4:0.048390024 5:0.036056961 6:-0.6968976 7:0.54876952 8:1.9540816 9:0.044590797 10:0.032799246 11:-0.2999964 12:0.72000002 13:0.80000001 14:0.068265309 15:0.045892757 16:-0.64007678 17:0.56428572 18:1.6428571 19:0.046269784 20:0.036505242 
2 1:-0.8980065 2:0.54571429 3:1.7428572 4:0.097312928 5:0.032905399 6:-0.97961756 7:0.52806123 8:1.8622449 9:0.094088404 10:0.031399702 11:-0.054001518 12:0.91904764 13:0.16190477 14:0.18011339 15:0.062278681 16:-0.8303577 17:0.56224489 18:1.622449 19:0.099619947 20:0.034297348 
2 1:-0.44028426 2:0.62714287 3:1.1 4:0.048854877 5:0.057698124 6:-0.51886129 7:0.58979593 8:1.2857143 9:0.04517649 10:0.055649135 11:-0.21362701 12:0.76904763 13:0.51904763 14:0.070725626 15:0.06755782 16:-0.41617169 17:0.62244898 18:1 19:0.048573511 20:0.059459212 
1.966961969030489 1:-0.44028426 2:0.62714287 3:1.1 4:0.048854877 5:0.057698124 6:-0.51886129 7:0.58979593 8:1.2857143 9:0.04517649 10:0.055649135 11:-0.21362701 12:0.76904763 13:0.51904763 14:0.070725626 15:0.06755782 16:-0.41617169 17:0.62244898 18:1 19:0.048573511 20:0.059459212 
1.178131572222846 1:-0.86128819 2:0.52666668 3:1.8380953 4:0.066848077 5:0.052950476 6:-0.79290859 7:0.54081633 8:1.7755102 9:0.067263641 10:0.054237482 11:-0.095590631 12:0.8761905 13:0.24761905 14:0.12124717 15:0.080915456 16:-0.84576323 17:0.52755103 18:1.9489796 19:0.064074868 20:0.05146578 
2 1:-0.8980065 2:0.54571429 3:1.7428572 4:0.097312928 5:0.032905399 6:-0.97961756 7:0.52806123 8:1.8622449 9:0.094088404 10:0.031399702 11:-0.054001518 12:0.91904764 13:0.16190477 14:0.18011339 15:0.062278681 16:-0.8303577 17:0.56224489 18:1.622449 19:0.099619947 20:0.034297348 
2 1:-0.77344217 2:0.52579834 3:2.1 4:0.038265309 5:0.10363897 6:-0.83174512 7:0.51794718 8:2.3571429 9:0.036521241 10:0.098926021 11:-0.25150729 12:0.72714288 13:0.67142859 14:0.055839006 15:0.11703084 16:-0.76589922 17:0.54540817 18:2.0357143 19:0.03820023 20:0.10335721 
0.1564059656389381 1:-0.54058636 2:0.60238096 3:1.3666667 4:0.049535148 5:0.034495425 6:-0.64883686 7:0.57070829 8:1.5918368 9:0.047610372 10:0.032121787 11:-0.27175812 12:0.73047621 13:0.67619049 14:0.068458052 15:0.04834737 16:-0.51574998 17:0.61836735 18:1.3265306 19:0.051332778 20:0.035599153 
2 1:-0.77344217 2:0.52579834 3:2.1 4:0.038265309 5:0.10363897 6:-0.83174512 7:0.51794718 8:2.3571429 9:0.036521241 10:0.098926021 11:-0.25150729 12:0.72714288 13:0.67142859 14:0.055839006 15:0.11703084 16:-0.76589922 17:0.54540817 18:2.0357143 19:0.03820023 20:0.10335721 
0.2939546247105732 1:-0.8687018 2:0.49854343 3:2.6190477 4:0.035498867 5:0.12856475 6:-1.0037539 7:0.4661026 8:2.9948979 9:0.033957206 10:0.12154561 11:-0.20614263 12:0.75380954 13:0.59523811 14:0.059546488 15:0.15779829 16:-0.73254992 17:0.52743097 18:2.2755102 19:0.036391087 20:0.13117702 
2 1:-0.54689893 2:0.60190478 3:1.3904762 4:0.049047621 5:0.033995059 6:-0.65383042 7:0.56611646 8:1.6377551 9:0.046686278 10:0.03178724 11:-0.26781199 12:0.73190478 13:0.66190478 14:0.06879819 15:0.048534143 16:-0.51235089 17:0.61734694 18:1.3163265 19:0.051241671 20:0.035850141 
2 1:-0.77344217 2:0.52579834 3:2.1 4:0.038265309 5:0.10363897 6:-0.83174512 7:0.51794718 8:2.3571429 9:0.036521241 10:0.098926021 11:-0.25150729 12:0.72714288 13:0.67142859 14:0.055839006 15:0.11703084 16:-0.76589922 17:0.54540817 18:2.0357143 19:0.03820023 20:0.10335721 
2 1:-0.54058636 2:0.60238096 3:1.3666667 4:0.049535148 5:0.034495425 6:-0.64883686 7:0.57070829 8:1.5918368 9:0.047610372 10:0.032121787 11:-0.27175812 12:0.73047621 13:0.67619049 14:0.068458052 15:0.04834737 16:-0.51574998 17:0.61836735 18:1.3265306 19:0.051332778 20:0.035599153 
0.1366456636091355 1:-2.8696394 2:0.38915967 3:5.0428573 4:0.075895694 5:0.14191203 6:-2.9297779 7:0.38094238 8:5.0765307 9:0.075775719 10:0.1402837 11:-0.099026758 12:0.87142859 13:0.25714287 14:0.13011338 15:0.25439311 16:-2.750929 17:0.3889856 18:5.0561224 19:0.072274574 20:0.13984063 
2 1:-0.54058636 2:0.60238096 3:1.3666667 4:0.049535148 5:0.034495425 6:-0.64883686 7:0.57070829 8:1.5918368 9:0.047610372 10:0.032121787 11:-0.27175812 12:0.73047621 13:0.67619049 14:0.068458052 15:0.04834737 16:-0.51574998 17:0.61836735 18:1.3265306 19:0.051332778 20:0.035599153 
2 1:-0.77344217 2:0.52579834 3:2.1 4:0.038265309 5:0.10363897 6:-0.83174512 7:0.51794718 8:2.3571429 9:0.036521241 10:0.098926021 11:-0.25150729 12:0.72714288 13:0.67142859 14:0.055839006 15:0.11703084 16:-0.76589922 17:0.54540817 18:2.0357143 19:0.03820023 20:0.10335721 
0.325474875874281 1:-3.3376436 2:0.36333334 3:5.7190477 4:0.063390026 5:0.13497674 6:-3.3545736 7:0.34714886 8:5.739796 9:0.062434925 10:0.13312347 11:-0.10533451 12:0.86428574 13:0.27142858 14:0.11976191 15:0.24807068 16:-3.1479542 17:0.35783314 18:5.7602041 19:0.059233132 20:0.13199989 
0.9528628856838366 1:-0.7527372 2:0.50056024 3:2.1619048 4:0.031156464 5:0.080322063 6:-0.84905032 7:0.48916567 8:2.4132653 9:0.029662121 10:0.076818125 11:-0.24427392 12:0.73285715 13:0.67142858 14:0.054365081 15:0.10049639 16:-0.73178575 17:0.51305523 18:2.0867347 19:0.03105477 20:0.080683987 
2 1:-0.54689893 2:0.60190478 3:1.3904762 4:0.049047621 5:0.033995059 6:-0.65383042 7:0.56611646 8:1.6377551 9:0.046686278 10:0.03178724 11:-0.26781199 12:0.73190478 13:0.66190478 14:0.06879819 15:0.048534143 16:-0.51235089 17:0.61734694 18:1.3163265 19:0.051241671 20:0.035850141 
2 1:-0.7379139 2:0.52817928 3:2.152381 4:0.037301589 5:0.093149997 6:-0.81257196 7:0.5159964 8:2.382653 9:0.035805394 10:0.090094053 11:-0.25715174 12:0.73238097 13:0.63809525 14:0.058900229 15:0.1126567 16:-0.7476782 17:0.51416567 18:2.1428572 19:0.038707831 20:0.093839449 
2 1:-0.7379139 2:0.52817928 3:2.152381 4:0.037301589 5:0.093149997 6:-0.81257196 7:0.5159964 8:2.382653 9:0.035805394 10:0.090094053 11:-0.25715174 12:0.73238097 13:0.63809525 14:0.058900229 15:0.1126567 16:-0.7476782 17:0.51416567 18:2.1428572 19:0.038707831 20:0.093839449 
0.06698305786666664 1:-1.6869369 2:0.4569748 3:3.6857144 4:0.077188212 5:0.16505217 6:-1.72505 7:0.46443577 8:3.6785715 9:0.080461267 10:0.16589129 11:-0.053783772 12:0.91428574 13:0.17142858 14:0.15253969 15:0.26783218 16:-1.6930853 17:0.46104442 18:3.7040816 19:0.078795294 20:0.16396106 
0.05614751483834804 1:-2.2633066 2:0.39501401 3:5.2476192 4:0.048185942 5:0.13806561 6:-2.1383862 7:0.409994 8:5.0357142 9:0.052022596 10:0.14024447 11:-0.17315549 12:0.81190479 13:0.37619048 14:0.088356014 15:0.22189954 16:-2.3499656 17:0.39302336 18:5.377551 19:0.048950958 20:0.13463357 
0.1627082635994263 1:-2.6436004 2:0.32199958 3:6.8380954 4:0.047766442 5:0.14484743 6:-2.6457515 7:0.31941546 8:6.8469388 9:0.048052895 10:0.14348671 11:-0.12276374 12:0.83428574 13:0.34285715 14:0.10325398 15:0.28834664 16:-2.6683824 17:0.32430511 18:6.7551022 19:0.048638589 20:0.1452418 
0.08407300547022291 1:-2.1672345 2:0.38002802 3:6.5380954 4:0.048514742 5:0.20267451 6:-2.2249759 7:0.36850587 8:6.7857143 9:0.046556124 10:0.19638749 11:-0.099058263 12:0.8557143 13:0.30000001 14:0.096349208 15:0.3286525 16:-2.0166453 17:0.39007988 18:6.25 19:0.048846835 20:0.20638838 
2 1:-0.45953458 2:0.62190478 3:1.1904762 4:0.056099777 5:0.066999824 6:-0.47204931 7:0.61326531 8:1.2142857 9:0.055627866 10:0.066275336 11:-0.22167101 12:0.7661905 13:0.49047621 14:0.080918374 15:0.077116034 16:-0.47404251 17:0.6244898 18:1.2040816 19:0.054690754 20:0.06580867 
0.528892367559768 1:-1.0322158 2:0.44529413 3:3.3285715 4:0.027108845 5:0.1828705 6:-1.1436668 7:0.43095854 8:3.6428572 9:0.026941899 10:0.17750584 11:-0.24516987 12:0.71523811 13:0.69523812 14:0.044841272 15:0.22919433 16:-0.98915428 17:0.45579232 18:3.1887755 19:0.029362767 20:0.18551898 
2 1:-0.45953458 2:0.62190478 3:1.1904762 4:0.056099777 5:0.066999824 6:-0.47204931 7:0.61326531 8:1.2142857 9:0.055627866 10:0.066275336 11:-0.22167101 12:0.7661905 13:0.49047621 14:0.080918374 15:0.077116034 16:-0.47404251 17:0.6244898 18:1.2040816 19:0.054690754 20:0.06580867 
0.2689058788465359 1:-1.9609064 2:0.38646198 3:5.6904764 4:0.052619051 5:0.22007629 6:-2.0318162 7:0.37070367 8:6.0306123 9:0.050838193 10:0.21274427 11:-0.09898229 12:0.85809526 13:0.2952381 14:0.097766444 15:0.33337214 16:-1.8567093 17:0.39370672 18:5.5204082 19:0.052920659 20:0.22334765 
2 1:-0.45953458 2:0.62190478 3:1.1904762 4:0.056099777 5:0.066999824 6:-0.47204931 7:0.61326531 8:1.2142857 9:0.055627866 10:0.066275336 11:-0.22167101 12:0.7661905 13:0.49047621 14:0.080918374 15:0.077116034 16:-0.47404251 17:0.6244898 18:1.2040816 19:0.054690754 20:0.06580867 
2 1:-0.45953458 2:0.62190478 3:1.1904762 4:0.056099777 5:0.066999824 6:-0.47204931 7:0.61326531 8:1.2142857 9:0.055627866 10:0.066275336 11:-0.22167101 12:0.7661905 13:0.49047621 14:0.080918374 15:0.077116034 16:-0.47404251 17:0.6244898 18:1.2040816 19:0.054690754 20:0.06580867 
0.1283981928961977 1:-2.2480708 2:0.37847448 3:6.7714287 4:0.047789119 5:0.20189909 6:-2.3221897 7:0.36643735 8:7.0714286 9:0.045931384 10:0.19515894 11:-0.093949188 12:0.86285716 13:0.28571429 14:0.097448981 15:0.32984878 16:-2.1111942 17:0.38841768 18:6.5561225 19:0.047987818 20:0.20484476 
-2 1:-0.81122312 2:0.57266107 3:2.0190477 4:0.083809526 5:0.0054011334 6:-0.82107403 7:0.58385354 8:2.1734694 9:0.086955955 10:0.003362823 11:-0.20726169 12:0.80523812 13:0.42380954 14:0.14249434 15:0.026082923 16:-0.71903157 17:0.59825931 18:1.867347 19:0.090326947 20:0.0068329298 
-2 1:-0.81122312 2:0.57266107 3:2.0190477 4:0.083809526 5:0.0054011334 6:-0.82107403 7:0.58385354 8:2.1734694 9:0.086955955 10:0.003362823 11:-0.20726169 12:0.80523812 13:0.42380954 14:0.14249434 15:0.026082923 16:-0.71903157 17:0.59825931 18:1.867347 19:0.090326947 20:0.0068329298 
-2 1:-0.63941645 2:0.62095239 3:1.4666667 4:0.1089229 5:0.0034943915 6:-0.69765724 7:0.61305524 8:1.5561225 9:0.10916025 10:0.001769327 11:-0.24335183 12:0.78476193 13:0.47619049 14:0.14916101 15:0.017358275 16:-0.57355286 17:0.65162064 18:1.367347 19:0.11704758 20:0.0044963875 
-2 1:-0.81122312 2:0.57266107 3:2.0190477 4:0.083809526 5:0.0054011334 6:-0.82107403 7:0.58385354 8:2.1734694 9:0.086955955 10:0.003362823 11:-0.20726169 12:0.80523812 13:0.42380954 14:0.14249434 15:0.026082923 16:-0.71903157 17:0.59825931 18:1.867347 19:0.090326947 20:0.0068329298 
-2 1:-0.81122312 2:0.57266107 3:2.0190477 4:0.083809526 5:0.0054011334 6:-0.82107403 7:0.58385354 8:2.1734694 9:0.086955955 10:0.003362823 11:-0.20726169 12:0.80523812 13:0.42380954 14:0.14249434 15:0.026082923 16:-0.71903157 17:0.59825931 18:1.867347 19:0.090326947 20:0.0068329298 
-2 1:-0.63941645 2:0.62095239 3:1.4666667 4:0.1089229 5:0.0034943915 6:-0.69765724 7:0.61305524 8:1.5561225 9:0.10916025 10:0.001769327 11:-0.24335183 12:0.78476193 13:0.47619049 14:0.14916101 15:0.017358275 16:-0.57355286 17:0.65162064 18:1.367347 19:0.11704758 20:0.0044963875 
-2 1:-0.80535252 2:0.57778713 3:2.1190476 4:0.079546488 5:0.00615448 6:-0.84956869 7:0.56803722 8:2.1683673 9:0.083454812 10:0.0050678177 11:-0.23586849 12:0.77619051 13:0.50476192 14:0.11719956 15:0.027251694 16:-0.7626981 17:0.61302522 18:2.0510205 19:0.089533011 20:0.0065901682 
-2 1:-0.80535252 2:0.57778713 3:2.1190476 4:0.079546488 5:0.00615448 6:-0.84956869 7:0.56803722 8:2.1683673 9:0.083454812 10:0.0050678177 11:-0.23586849 12:0.77619051 13:0.50476192 14:0.11719956 15:0.027251694 16:-0.7626981 17:0.61302522 18:2.0510205 19:0.089533011 20:0.0065901682 
-2 1:-0.76110492 2:0.51817928 3:2.3666667 4:0.032891158 5:0.14829166 6:-1.0278174 7:0.48241297 8:3.1326531 9:0.029701167 10:0.12845175 11:-0.3044448 12:0.69142859 13:0.9714286 14:0.046439913 15:0.18206041 16:-0.73547835 17:0.53814527 18:2.3520409 19:0.036117764 20:0.14475028 
-2 1:-0.80535252 2:0.57778713 3:2.1190476 4:0.079546488 5:0.00615448 6:-0.84956869 7:0.56803722 8:2.1683673 9:0.083454812 10:0.0050678177 11:-0.23586849 12:0.77619051 13:0.50476192 14:0.11719956 15:0.027251694 16:-0.7626981 17:0.61302522 18:2.0510205 19:0.089533011 20:0.0065901682 
-2 1:-0.63941645 2:0.62095239 3:1.4666667 4:0.1089229 5:0.0034943915 6:-0.69765724 7:0.61305524 8:1.5561225 9:0.10916025 10:0.001769327 11:-0.24335183 12:0.78476193 13:0.47619049 14:0.14916101 15:0.017358275 16:-0.57355286 17:0.65162064 18:1.367347 19:0.11704758 20:0.0044963875 
-2 1:-0.63941645 2:0.62095239 3:1.4666667 4:0.1089229 5:0.0034943915 6:-0.69765724 7:0.61305524 8:1.5561225 9:0.10916025 10:0.001769327 11:-0.24335183 12:0.78476193 13:0.47619049 14:0.14916101 15:0.017358275 16:-0.57355286 17:0.65162064 18:1.367347 19:0.11704758 20:0.0044963875 
-2 1:-0.80535252 2:0.57778713 3:2.1190476 4:0.079546488 5:0.00615448 6:-0.84956869 7:0.56803722 8:2.1683673 9:0.083454812 10:0.0050678177 11:-0.23586849 12:0.77619051 13:0.50476192 14:0.11719956 15:0.027251694 16:-0.7626981 17:0.61302522 18:2.0510205 19:0.089533011 20:0.0065901682 
-2 1:-0.76110492 2:0.51817928 3:2.3666667 4:0.032891158 5:0.14829166 6:-1.0278174 7:0.48241297 8:3.1326531 9:0.029701167 10:0.12845175 11:-0.3044448 12:0.69142859 13:0.9714286 14:0.046439913 15:0.18206041 16:-0.73547835 17:0.53814527 18:2.3520409 19:0.036117764 20:0.14475028 
-0.8519495238885582 1:-0.80288659 2:0.57436976 3:2.0714286 4:0.088163268 5:0.0057989308 6:-0.87719019 7:0.57854143 8:2.3418368 9:0.088895256 10:0.0018363981 11:-0.21448527 12:0.80047622 13:0.43333334 14:0.14129253 15:0.026534886 16:-0.67605588 17:0.60714286 18:1.7040817 19:0.092435443 20:0.0092928792 
-2 1:-0.56487252 2:0.64904764 3:1.2619048 4:0.12125851 5:0.0076649812 6:-0.5607053 7:0.65876351 8:1.3163265 9:0.11804977 10:0.0069113538 11:-0.22145736 12:0.80380955 13:0.43809525 14:0.16308391 15:0.019313938 16:-0.52626477 17:0.66866748 18:1.2857143 19:0.12777229 20:0.0074074337 
-2 1:-0.86294246 2:0.57770309 3:2.1333334 4:0.078356012 5:0.0056160279 6:-0.95210226 7:0.56731693 8:2.3520408 9:0.078769264 10:0.0031254664 11:-0.24833955 12:0.77904764 13:0.53333335 14:0.11951248 15:0.025950523 16:-0.81548752 17:0.59579832 18:2.0408163 19:0.08172376 20:0.0064469649 
-2 1:-0.86294246 2:0.57770309 3:2.1333334 4:0.078356012 5:0.0056160279 6:-0.95210226 7:0.56731693 8:2.3520408 9:0.078769264 10:0.0031254664 11:-0.24833955 12:0.77904764 13:0.53333335 14:0.11951248 15:0.025950523 16:-0.81548752 17:0.59579832 18:2.0408163 19:0.08172376 20:0.0064469649 
-2 1:-0.56487252 2:0.64904764 3:1.2619048 4:0.12125851 5:0.0076649812 6:-0.5607053 7:0.65876351 8:1.3163265 9:0.11804977 10:0.0069113538 11:-0.22145736 12:0.80380955 13:0.43809525 14:0.16308391 15:0.019313938 16:-0.52626477 17:0.66866748 18:1.2857143 19:0.12777229 20:0.0074074337 
-0.1442460469820381 1:-0.55335504 2:0.66666668 3:1.2380953 4:0.11636055 5:0.005272595 6:-0.79365226 7:0.62662065 8:1.8214286 9:0.11165921 10:-0.0012492095 11:-0.34883707 12:0.74142858 13:0.64285716 14:0.1255669 15:0.014019181 16:-0.47891703 17:0.71173469 18:0.94387755 19:0.12346418 20:0.0093242648 
-0.9784036087738581 1:-0.46558537 2:0.69761906 3:0.94761906 4:0.12006803 5:0.0065007799 6:-0.62502064 7:0.66509603 8:1.4642857 9:0.12060079 10:0.00066116552 11:-0.30995025 12:0.7514286 13:0.65714287 14:0.13373017 15:0.010921753 16:-0.43179961 17:0.71887755 18:0.70918368 19:0.12734277 20:0.0092202519 
-2 1:-0.46558537 2:0.69761906 3:0.94761906 4:0.12006803 5:0.0065007799 6:-0.62502064 7:0.66509603 8:1.4642857 9:0.12060079 10:0.00066116552 11:-0.30995025 12:0.7514286 13:0.65714287 14:0.13373017 15:0.010921753 16:-0.43179961 17:0.71887755 18:0.70918368 19:0.12734277 20:0.0092202519 
-0.9740348778649028 1:-0.84699202 2:0.57389357 3:2.0952381 4:0.075340139 5:0.005712001 6:-1.0500781 7:0.54996999 8:2.5459184 9:0.075163996 10:0.0010358512 11:-0.24950087 12:0.77571431 13:0.52857144 14:0.11436509 15:0.025887133 16:-0.74787089 17:0.61059424 18:1.8520408 19:0.08056539 20:0.0083707575 
-2 1:-0.56487252 2:0.64904764 3:1.2619048 4:0.12125851 5:0.0076649812 6:-0.5607053 7:0.65876351 8:1.3163265 9:0.11804977 10:0.0069113538 11:-0.22145736 12:0.80380955 13:0.43809525 14:0.16308391 15:0.019313938 16:-0.52626477 17:0.66866748 18:1.2857143 19:0.12777229 20:0.0074074337 
-2 1:-0.56487252 2:0.64904764 3:1.2619048 4:0.12125851 5:0.0076649812 6:-0.5607053 7:0.65876351 8:1.3163265 9:0.11804977 10:0.0069113538 11:-0.22145736 12:0.80380955 13:0.43809525 14:0.16308391 15:0.019313938 16:-0.52626477 17:0.66866748 18:1.2857143 19:0.12777229 20:0.0074074337 
-0.3918783906956087 1:-0.56880415 2:0.64857145 3:1.2285715 4:0.12078232 5:0.007448427 6:-0.50769985 7:0.67193878 8:1.0969388 9:0.12307372 10:0.0086606435 11:-0.2193217 12:0.80714288 13:0.44285715 14:0.16385489 15:0.018463275 16:-0.57185379 17:0.65285116 18:1.4030612 19:0.12772023 20:0.0050551745 
-1.852262635401637 1:-0.84699202 2:0.57389357 3:2.0952381 4:0.075340139 5:0.005712001 6:-1.0500781 7:0.54996999 8:2.5459184 9:0.075163996 10:0.0010358512 11:-0.24950087 12:0.77571431 13:0.52857144 14:0.11436509 15:0.025887133 16:-0.74787089 17:0.61059424 18:1.8520408 19:0.08056539 20:0.0083707575 
-1.717538532959653 1:-0.46558537 2:0.69761906 3:0.94761906 4:0.12006803 5:0.0065007799 6:-0.62502064 7:0.66509603 8:1.4642857 9:0.12060079 10:0.00066116552 11:-0.30995025 12:0.7514286 13:0.65714287 14:0.13373017 15:0.010921753 16:-0.43179961 17:0.71887755 18:0.70918368 19:0.12734277 20:0.0092202519 
-2 1:-0.86294246 2:0.57770309 3:2.1333334 4:0.078356012 5:0.0056160279 6:-0.95210226 7:0.56731693 8:2.3520408 9:0.078769264 10:0.0031254664 11:-0.24833955 12:0.77904764 13:0.53333335 14:0.11951248 15:0.025950523 16:-0.81548752 17:0.59579832 18:2.0408163 19:0.08172376 20:0.0064469649 
-2 1:-0.70208187 2:0.60333335 3:1.604762 4:0.097233563 5:0.0061121892 6:-0.6806113 7:0.6194778 8:1.6887755 9:0.096014685 10:0.0051714462 11:-0.21465034 12:0.80380955 13:0.43809525 14:0.14401362 15:0.022633499 16:-0.6838949 17:0.6222389 18:1.6479592 19:0.10326427 20:0.0054300441 
-2 1:-0.70208187 2:0.60333335 3:1.604762 4:0.097233563 5:0.0061121892 6:-0.6806113 7:0.6194778 8:1.6887755 9:0.096014685 10:0.0051714462 11:-0.21465034 12:0.80380955 13:0.43809525 14:0.14401362 15:0.022633499 16:-0.6838949 17:0.6222389 18:1.6479592 19:0.10326427 20:0.0054300441 
-2 1:-0.86294246 2:0.57770309 3:2.1333334 4:0.078356012 5:0.0056160279 6:-0.95210226 7:0.56731693 8:2.3520408 9:0.078769264 10:0.0031254664 11:-0.24833955 12:0.77904764 13:0.53333335 14:0.11951248 15:0.025950523 16:-0.81548752 17:0.59579832 18:2.0408163 19:0.08172376 20:0.0064469649 
-2 1:-0.70208187 2:0.60333335 3:1.604762 4:0.097233563 5:0.0061121892 6:-0.6806113 7:0.6194778 8:1.6887755 9:0.096014685 10:0.0051714462 11:-0.21465034 12:0.80380955 13:0.43809525 14:0.14401362 15:0.022633499 16:-0.6838949 17:0.6222389 18:1.6479592 19:0.10326427 20:0.0054300441 
-2 1:-0.7929364 2:0.57428572 3:1.8 4:0.084206352 5:0.0060011448 6:-0.74534011 7:0.60162065 8:1.8469388 9:0.086448357 10:0.0052124201 11:-0.22645382 12:0.79666669 13:0.45238096 14:0.13513606 15:0.023572648 16:-0.7791311 17:0.59162665 18:1.8316327 19:0.087827989 20:0.0055557519 
-2 1:-0.7929364 2:0.57428572 3:1.8 4:0.084206352 5:0.0060011448 6:-0.74534011 7:0.60162065 8:1.8469388 9:0.086448357 10:0.0052124201 11:-0.22645382 12:0.79666669 13:0.45238096 14:0.13513606 15:0.023572648 16:-0.7791311 17:0.59162665 18:1.8316327 19:0.087827989 20:0.0055557519 
-2 1:-0.70208187 2:0.60333335 3:1.604762 4:0.097233563 5:0.0061121892 6:-0.6806113 7:0.6194778 8:1.6887755 9:0.096014685 10:0.0051714462 11:-0.21465034 12:0.80380955 13:0.43809525 14:0.14401362 15:0.022633499 16:-0.6838949 17:0.6222389 18:1.6479592 19:0.10326427 20:0.0054300441 
-2 1:-0.7929364 2:0.57428572 3:1.8 4:0.084206352 5:0.0060011448 6:-0.74534011 7:0.60162065 8:1.8469388 9:0.086448357 10:0.0052124201 11:-0.22645382 12:0.79666669 13:0.45238096 14:0.13513606 15:0.023572648 16:-0.7791311 17:0.59162665 18:1.8316327 19:0.087827989 20:0.0055557519 
-2 1:-0.7929364 2:0.57428572 3:1.8 4:0.084206352 5:0.0060011448 6:-0.74534011 7:0.60162065 8:1.8469388 9:0.086448357 10:0.0052124201 11:-0.22645382 12:0.79666669 13:0.45238096 14:0.13513606 15:0.023572648 16:-0.7791311 17:0.59162665 18:1.8316327 19:0.087827989 20:0.0055557519 
-0.4390868957317687 1:-0.39186584 2:0.73190478 3:0.89047621 4:0.15123584 5:0.006207308 6:-0.44167206 7:0.71683673 8:0.75 9:0.14108705 10:0.0082555079 11:-0.31822119 12:0.75476193 13:0.66190478 14:0.15227892 15:0.010826487 16:-0.52161905 17:0.69804922 18:1.3112245 19:0.15225427 20:0.0014530725 
-1.659891363173425 1:-0.70920628 2:0.60142858 3:1.5857143 4:0.097324266 5:0.0056219667 6:-0.62129761 7:0.63265306 8:1.4693878 9:0.10054405 10:0.006794359 11:-0.21315848 12:0.80714288 13:0.44285715 14:0.14752835 15:0.021192045 16:-0.74758942 17:0.60642258 18:1.7653062 19:0.10461787 20:0.00286976 
-2 1:-0.56880415 2:0.64857145 3:1.2285715 4:0.12078232 5:0.007448427 6:-0.50769985 7:0.67193878 8:1.0969388 9:0.12307372 10:0.0086606435 11:-0.2193217 12:0.80714288 13:0.44285715 14:0.16385489 15:0.018463275 16:-0.57185379 17:0.65285116 18:1.4030612 19:0.12772023 20:0.0050551745 
-2 1:-0.55335504 2:0.66666668 3:1.2380953 4:0.11636055 5:0.005272595 6:-0.79365226 7:0.62662065 8:1.8214286 9:0.11165921 10:-0.0012492095 11:-0.34883707 12:0.74142858 13:0.64285716 14:0.1255669 15:0.014019181 16:-0.47891703 17:0.71173469 18:0.94387755 19:0.12346418 20:0.0093242648 
-2 1:-0.55335504 2:0.66666668 3:1.2380953 4:0.11636055 5:0.005272595 6:-0.79365226 7:0.62662065 8:1.8214286 9:0.11165921 10:-0.0012492095 11:-0.34883707 12:0.74142858 13:0.64285716 14:0.1255669 15:0.014019181 16:-0.47891703 17:0.71173469 18:0.94387755 19:0.12346418 20:0.0093242648 
-1.554086620621333 1:-0.56880415 2:0.64857145 3:1.2285715 4:0.12078232 5:0.007448427 6:-0.50769985 7:0.67193878 8:1.0969388 9:0.12307372 10:0.0086606435 11:-0.2193217 12:0.80714288 13:0.44285715 14:0.16385489 15:0.018463275 16:-0.57185379 17:0.65285116 18:1.4030612 19:0.12772023 20:0.0050551745 
-0.3443761142808575 1:-0.6992284 2:0.58579833 3:1.7285715 4:0.087426306 5:0.010764367 6:-0.42290481 7:0.6892857 8:1.0867347 9:0.11501717 10:0.020749069 11:-0.31130287 12:0.73904764 13:0.70476192 14:0.11557824 15:0.027222099 16:-1.0642682 17:0.52986195 18:2.6581633 19:0.083194503 20:-0.0012048646 
-2 1:-0.70920628 2:0.60142858 3:1.5857143 4:0.097324266 5:0.0056219667 6:-0.62129761 7:0.63265306 8:1.4693878 9:0.10054405 10:0.006794359 11:-0.21315848 12:0.80714288 13:0.44285715 14:0.14752835 15:0.021192045 16:-0.74758942 17:0.60642258 18:1.7653062 19:0.10461787 20:0.00286976 
-0.1724512451825087 1:-0.712442 2:0.5717087 3:1.8952382 4:0.056587304 5:0.02119971 6:-1.3052107 7:0.48532414 8:3.494898 9:0.049875053 10:0.0030495049 11:-0.41473355 12:0.67190477 13:0.91904764 14:0.069977326 15:0.034227477 16:-0.42657821 17:0.65714286 18:1.0408163 19:0.067510933 20:0.032586194 
-2 1:-0.70920628 2:0.60142858 3:1.5857143 4:0.097324266 5:0.0056219667 6:-0.62129761 7:0.63265306 8:1.4693878 9:0.10054405 10:0.006794359 11:-0.21315848 12:0.80714288 13:0.44285715 14:0.14752835 15:0.021192045 16:-0.74758942 17:0.60642258 18:1.7653062 19:0.10461787 20:0.00286976 
-2 1:-0.76110492 2:0.51817928 3:2.3666667 4:0.032891158 5:0.14829166 6:-1.0278174 7:0.48241297 8:3.1326531 9:0.029701167 10:0.12845175 11:-0.3044448 12:0.69142859 13:0.9714286 14:0.046439913 15:0.18206041 16:-0.73547835 17:0.53814527 18:2.3520409 19:0.036117764 20:0.14475028 
-2 1:-0.76110492 2:0.51817928 3:2.3666667 4:0.032891158 5:0.14829166 6:-1.0278174 7:0.48241297 8:3.1326531 9:0.029701167 10:0.12845175 11:-0.3044448 12:0.69142859 13:0.9714286 14:0.046439913 15:0.18206041 16:-0.73547835 17:0.53814527 18:2.3520409 19:0.036117764 20:0.14475028 
-0.3956202851035761 1:-0.12252898 2:0.89047619 3:0.21904763 4:0.49458048 5:0.0036496365 6:-0.11799879 7:0.89030614 8:0.21938775 9:0.51133645 10:0.0031314393 11:-0.10042378 12:0.9047619 13:0.1904762 14:0.4943764 15:0.0048537945 16:-0.13600758 17:0.8852041 18:0.22959183 19:0.50670297 20:0.0029992258 
-0.09228439226219591 1:-0.57595714 2:0.62532214 3:1.4666667 4:0.084829936 5:0.01467974 6:-0.97701869 7:0.55852341 8:2.5612245 9:0.075320178 10:0.00092232208 11:-0.37828282 12:0.70904763 13:0.83333335 14:0.10064626 15:0.023578243 16:-0.40898982 17:0.68163266 18:0.91836734 19:0.096509268 20:0.021880882 
-1.464076938539057 1:-0.57595714 2:0.62532214 3:1.4666667 4:0.084829936 5:0.01467974 6:-0.97701869 7:0.55852341 8:2.5612245 9:0.075320178 10:0.00092232208 11:-0.37828282 12:0.70904763 13:0.83333335 14:0.10064626 15:0.023578243 16:-0.40898982 17:0.68163266 18:0.91836734 19:0.096509268 20:0.021880882 
-1.214790734101616 1:-0.27338447 2:0.75238097 3:0.60952383 4:0.10430839 5:0.026483301 6:-0.37935011 7:0.69387756 8:0.85714286 9:0.092084031 10:0.023300431 11:-0.14149807 12:0.84380956 13:0.32380953 14:0.13447847 15:0.03188817 16:-0.2213664 17:0.78571429 18:0.48979591 19:0.11665712 20:0.028746971 
-0.6117706214318657 1:-0.20852879 2:0.8004762 3:0.43333334 4:0.13045352 5:0.022165896 6:-0.17182778 7:0.83214287 8:0.37244898 9:0.14657955 10:0.022165866 11:-0.2250834 12:0.79238097 13:0.43809526 14:0.12732427 15:0.021517502 16:-0.35079639 17:0.722449 18:0.71428573 19:0.10840536 20:0.016698416 
