svm_type c_svc
kernel_type rbf
gamma 0.5
nr_class 2
total_sv 45
rho 0.477401
label 1 -1
nr_sv 22 23
SV
0.5998949410643556 1:-0.12721493 2:0.77333335 3:0.47619049 4:0.054965988 5:0.239098 
2 1:-0.18213411 2:0.70714288 3:0.70000002 4:0.042029481 5:0.24295083 
2 1:-0.13217898 2:0.7709524 3:0.53809525 4:0.045283449 5:0.23676528 
2 1:-0.15665208 2:0.73809526 3:0.5809524 4:0.042641726 5:0.2344184 
2 1:-0.13641463 2:0.76904764 3:0.51904763 4:0.045192746 5:0.23566802 
2 1:-0.1263104 2:0.77523811 3:0.49523811 4:0.045351475 5:0.22864115 
2 1:-0.11853996 2:0.7909524 3:0.45238096 4:0.056780048 5:0.23866277 
2 1:-0.15889899 2:0.73333335 3:0.59047621 4:0.043276646 5:0.22225799 
2 1:-0.15050902 2:0.74523811 3:0.56666669 4:0.043424038 5:0.23187045 
2 1:-0.1582649 2:0.73428573 3:0.60000002 4:0.038775512 5:0.22723883 
2 1:-0.15728537 2:0.74285716 3:0.62857145 4:0.040408166 5:0.22481052 
2 1:-0.15847361 2:0.72857145 3:0.60000002 4:0.039240365 5:0.22389565 
2 1:-0.15918028 2:0.73047621 3:0.61904764 4:0.040419504 5:0.22766965 
2 1:-0.12085045 2:0.78666669 3:0.49523811 4:0.047959187 5:0.23064574 
2 1:-0.14692635 2:0.75380954 3:0.59523811 4:0.045827666 5:0.23182108 
2 1:-0.14696349 2:0.75952383 3:0.59523811 4:0.048208619 5:0.21760482 
2 1:-0.13433208 2:0.76523812 3:0.53809526 4:0.053231296 5:0.23903913 
2 1:-0.12043233 2:0.7914286 3:0.4857143 4:0.060226762 5:0.22205074 
2 1:-0.14279182 2:0.76333336 3:0.57619049 4:0.047256238 5:0.21849974 
2 1:-0.15369376 2:0.74285716 3:0.62857144 4:0.047891159 5:0.2158283 
2 1:-0.14459162 2:0.76428573 3:0.5857143 4:0.049195013 5:0.23553828 
2 1:-0.13209654 2:0.78333335 3:0.54761906 4:0.068480729 5:0.23975296 
-2 1:-0.13752678 2:0.80000002 3:0.45714287 4:0.12874151 5:0.029458045 
-2 1:-0.11644468 2:0.82238098 3:0.36666667 4:0.13108845 5:0.031172923 
-2 1:-0.09894437 2:0.84523812 3:0.30952382 4:0.13345806 5:0.03085186 
-2 1:-0.17123131 2:0.7661905 3:0.54761906 4:0.12709752 5:0.029730653 
-2 1:-0.10084427 2:0.83666668 3:0.33809524 4:0.12904762 5:0.034521753 
-2 1:-0.172034 2:0.7561905 3:0.59047621 4:0.12564627 5:0.033093768 
-2 1:-0.16546703 2:0.76904764 3:0.57619049 4:0.1208957 5:0.02909958 
-0.5313408028040492 1:-0.19837387 2:0.74571431 3:0.65714288 4:0.094863951 5:0.024824726 
-2 1:-0.14538967 2:0.79238096 3:0.49523811 4:0.11871882 5:0.023405369 
-1.169640871400027 1:-0.15531254 2:0.78190477 3:0.44761906 4:0.11928572 5:0.022590772 
-2 1:-0.23255655 2:0.70904763 3:0.7761905 4:0.087290252 5:0.032400462 
-2 1:-0.19206046 2:0.7514286 3:0.71428574 4:0.10747167 5:0.036172196 
-2 1:-0.21166594 2:0.72904764 3:0.74761907 4:0.091065765 5:0.034469276 
-2 1:-0.1397996 2:0.79714288 3:0.42857144 4:0.11893424 5:0.022188264 
-0.8989132668602786 1:-0.20141899 2:0.73714288 3:0.74285717 4:0.10979593 5:0.033209067 
-2 1:-0.20610856 2:0.7357143 3:0.70000002 4:0.094569164 5:0.032345029 
-2 1:-0.20380857 2:0.73952383 3:0.68095239 4:0.0952381 5:0.031273143 
-2 1:-0.23095331 2:0.70333335 3:0.83333335 4:0.083356012 5:0.037016627 
-2 1:-0.21684284 2:0.72619049 3:0.71904764 4:0.10286848 5:0.033163908 
-2 1:-0.11311117 2:0.82285717 3:0.40000001 4:0.14718822 5:0.029727035 
-2 1:-0.18389473 2:0.75333336 3:0.61904764 4:0.11250568 5:0.031638274 
-2 1:-0.18469987 2:0.75047621 3:0.64761906 4:0.10007937 5:0.027974725 
-2 1:-0.16209647 2:0.7761905 3:0.50476192 4:0.11148527 5:0.024141437 
