svm_type c_svc
kernel_type rbf
gamma 0.5
nr_class 2
total_sv 72
rho 0.278733
label 1 -1
nr_sv 36 36
SV
1.06403648761031 1:-1.5098958 2:0.39915967 3:4.4285716 4:0.032902496 5:0.25408033 6:-1.5688136 7:0.38316558 8:4.6938776 9:0.031484278 10:0.2518118 11:-0.16313821 12:0.78238098 13:0.48095239 14:0.056020413 15:0.32464029 16:-1.4787143 17:0.40166683 18:4.2755103 19:0.033046128 20:0.25861611 
0.6663784153330143 1:-0.46694664 2:0.61476192 3:1.1476191 4:0.047437644 5:0.055285752 6:-0.53742768 7:0.59030612 8:1.3826531 9:0.046452 10:0.05180397 11:-0.20800366 12:0.77238097 13:0.52380953 14:0.073945581 15:0.063700862 16:-0.42853786 17:0.62908164 18:1.0357143 19:0.05292066 20:0.056153791 
0.8918784358634073 1:-0.72865155 2:0.52103642 3:2.1095239 4:0.036530614 5:0.086368029 6:-0.85217261 7:0.50885354 8:2.372449 9:0.035948563 10:0.084091666 11:-0.22866693 12:0.74666668 13:0.60952382 14:0.059421771 15:0.10709426 16:-0.72599975 17:0.51875751 18:2.0357143 19:0.037783737 20:0.088230354 
2 1:-0.46694664 2:0.61476192 3:1.1476191 4:0.047437644 5:0.055285752 6:-0.53742768 7:0.59030612 8:1.3826531 9:0.046452 10:0.05180397 11:-0.20800366 12:0.77238097 13:0.52380953 14:0.073945581 15:0.063700862 16:-0.42853786 17:0.62908164 18:1.0357143 19:0.05292066 20:0.056153791 
2 1:-0.45953458 2:0.62190478 3:1.1904762 4:0.056099777 5:0.066999824 6:-0.47204931 7:0.61326531 8:1.2142857 9:0.055627866 10:0.066275336 11:-0.22167101 12:0.7661905 13:0.49047621 14:0.080918374 15:0.077116034 16:-0.47404251 17:0.6244898 18:1.2040816 19:0.054690754 20:0.06580867 
2 1:-0.45953458 2:0.62190478 3:1.1904762 4:0.056099777 5:0.066999824 6:-0.47204931 7:0.61326531 8:1.2142857 9:0.055627866 10:0.066275336 11:-0.22167101 12:0.7661905 13:0.49047621 14:0.080918374 15:0.077116034 16:-0.47404251 17:0.6244898 18:1.2040816 19:0.054690754 20:0.06580867 
1.325619727827887 1:-0.54689893 2:0.60190478 3:1.3904762 4:0.049047621 5:0.033995059 6:-0.65383042 7:0.56611646 8:1.6377551 9:0.046686278 10:0.03178724 11:-0.26781199 12:0.73190478 13:0.66190478 14:0.06879819 15:0.048534143 16:-0.51235089 17:0.61734694 18:1.3163265 19:0.051241671 20:0.035850141 
2 1:-0.54689893 2:0.60190478 3:1.3904762 4:0.049047621 5:0.033995059 6:-0.65383042 7:0.56611646 8:1.6377551 9:0.046686278 10:0.03178724 11:-0.26781199 12:0.73190478 13:0.66190478 14:0.06879819 15:0.048534143 16:-0.51235089 17:0.61734694 18:1.3163265 19:0.051241671 20:0.035850141 
0.2868012243103101 1:-1.1663564 2:0.417479 3:3.7142858 4:0.023083902 5:0.15733704 6:-1.2617053 7:0.39767523 8:4.0969388 9:0.022022075 10:0.15390402 11:-0.23610328 12:0.72285716 13:0.65714288 14:0.042097508 15:0.21218865 16:-1.103875 17:0.42527011 18:3.5408163 19:0.023805186 20:0.16215489 
2 1:-0.54689893 2:0.60190478 3:1.3904762 4:0.049047621 5:0.033995059 6:-0.65383042 7:0.56611646 8:1.6377551 9:0.046686278 10:0.03178724 11:-0.26781199 12:0.73190478 13:0.66190478 14:0.06879819 15:0.048534143 16:-0.51235089 17:0.61734694 18:1.3163265 19:0.051241671 20:0.035850141 
2 1:-0.44028426 2:0.62714287 3:1.1 4:0.048854877 5:0.057698124 6:-0.51886129 7:0.58979593 8:1.2857143 9:0.04517649 10:0.055649135 11:-0.21362701 12:0.76904763 13:0.51904763 14:0.070725626 15:0.06755782 16:-0.41617169 17:0.62244898 18:1 19:0.048573511 20:0.059459212 
2 1:-0.44028426 2:0.62714287 3:1.1 4:0.048854877 5:0.057698124 6:-0.51886129 7:0.58979593 8:1.2857143 9:0.04517649 10:0.055649135 11:-0.21362701 12:0.76904763 13:0.51904763 14:0.070725626 15:0.06755782 16:-0.41617169 17:0.62244898 18:1 19:0.048573511 20:0.059459212 
1.054288766707445 1:-0.7179194 2:0.52619049 3:1.8047619 4:0.040941045 5:0.074960588 6:-0.76319883 7:0.5239796 8:2.0663266 9:0.036872658 10:0.071987086 11:-0.21795575 12:0.75666668 13:0.56666668 14:0.061836737 15:0.091906118 16:-0.65498744 17:0.55489196 18:1.7704082 19:0.040543004 20:0.076024684 
0.4006310495715908 1:-1.1754715 2:0.41369749 3:3.4428572 4:0.02973923 5:0.21524377 6:-1.1110316 7:0.4387455 8:3.3928572 9:0.029076427 10:0.21585012 11:-0.19689455 12:0.75333335 13:0.56190477 14:0.047687077 15:0.25764088 16:-1.1845969 17:0.41199096 18:3.6836735 19:0.028555812 20:0.21129555 
1.103295800664587 1:-0.7993314 2:0.51103642 3:2.2095239 4:0.037267576 5:0.095668899 6:-0.87110521 7:0.48448379 8:2.3520408 9:0.037536442 10:0.09588438 11:-0.25631582 12:0.72047622 13:0.66190478 14:0.054013609 15:0.11554182 16:-0.81099513 17:0.52478992 18:2.2346939 19:0.03836943 20:0.097245445 
2 1:-0.7179194 2:0.52619049 3:1.8047619 4:0.040941045 5:0.074960588 6:-0.76319883 7:0.5239796 8:2.0663266 9:0.036872658 10:0.071987086 11:-0.21795575 12:0.75666668 13:0.56666668 14:0.061836737 15:0.091906118 16:-0.65498744 17:0.55489196 18:1.7704082 19:0.040543004 20:0.076024684 
2 1:-0.7179194 2:0.52619049 3:1.8047619 4:0.040941045 5:0.074960588 6:-0.76319883 7:0.5239796 8:2.0663266 9:0.036872658 10:0.071987086 11:-0.21795575 12:0.75666668 13:0.56666668 14:0.061836737 15:0.091906118 16:-0.65498744 17:0.55489196 18:1.7704082 19:0.040543004 20:0.076024684 
1.053790440347693 1:-0.7179194 2:0.52619049 3:1.8047619 4:0.040941045 5:0.074960588 6:-0.76319883 7:0.5239796 8:2.0663266 9:0.036872658 10:0.071987086 11:-0.21795575 12:0.75666668 13:0.56666668 14:0.061836737 15:0.091906118 16:-0.65498744 17:0.55489196 18:1.7704082 19:0.040543004 20:0.076024684 
2 1:-0.7993314 2:0.51103642 3:2.2095239 4:0.037267576 5:0.095668899 6:-0.87110521 7:0.48448379 8:2.3520408 9:0.037536442 10:0.09588438 11:-0.25631582 12:0.72047622 13:0.66190478 14:0.054013609 15:0.11554182 16:-0.81099513 17:0.52478992 18:2.2346939 19:0.03836943 20:0.097245445 
2 1:-0.44028426 2:0.62714287 3:1.1 4:0.048854877 5:0.057698124 6:-0.51886129 7:0.58979593 8:1.2857143 9:0.04517649 10:0.055649135 11:-0.21362701 12:0.76904763 13:0.51904763 14:0.070725626 15:0.06755782 16:-0.41617169 17:0.62244898 18:1 19:0.048573511 20:0.059459212 
2 1:-0.44028426 2:0.62714287 3:1.1 4:0.048854877 5:0.057698124 6:-0.51886129 7:0.58979593 8:1.2857143 9:0.04517649 10:0.055649135 11:-0.21362701 12:0.76904763 13:0.51904763 14:0.070725626 15:0.06755782 16:-0.41617169 17:0.62244898 18:1 19:0.048573511 20:0.059459212 
0.30337588887965 1:-0.72272042 2:0.52151262 3:2.0857143 4:0.034659866 5:0.07691417 6:-0.74068043 7:0.52385955 8:2.0867347 9:0.034425761 10:0.074905329 11:-0.225895 12:0.7457143 13:0.60000001 14:0.061247168 15:0.096067545 16:-0.78485035 17:0.50468187 18:2.1632653 19:0.035922532 20:0.074425772 
1.610073384969391 1:-0.7993314 2:0.51103642 3:2.2095239 4:0.037267576 5:0.095668899 6:-0.87110521 7:0.48448379 8:2.3520408 9:0.037536442 10:0.09588438 11:-0.25631582 12:0.72047622 13:0.66190478 14:0.054013609 15:0.11554182 16:-0.81099513 17:0.52478992 18:2.2346939 19:0.03836943 20:0.097245445 
2 1:-0.59455455 2:0.56619049 3:1.5761905 4:0.040306125 5:0.057999012 6:-0.58394171 7:0.56938776 8:1.5714286 9:0.042091837 10:0.056580043 11:-0.17071929 12:0.79904764 13:0.44761906 14:0.074920639 15:0.0715838 16:-0.60345464 17:0.56377551 18:1.6071429 19:0.04123282 20:0.055949793 
2 1:-0.59455455 2:0.56619049 3:1.5761905 4:0.040306125 5:0.057999012 6:-0.58394171 7:0.56938776 8:1.5714286 9:0.042091837 10:0.056580043 11:-0.17071929 12:0.79904764 13:0.44761906 14:0.074920639 15:0.0715838 16:-0.60345464 17:0.56377551 18:1.6071429 19:0.04123282 20:0.055949793 
2 1:-0.59455455 2:0.56619049 3:1.5761905 4:0.040306125 5:0.057999012 6:-0.58394171 7:0.56938776 8:1.5714286 9:0.042091837 10:0.056580043 11:-0.17071929 12:0.79904764 13:0.44761906 14:0.074920639 15:0.0715838 16:-0.60345464 17:0.56377551 18:1.6071429 19:0.04123282 20:0.055949793 
2 1:-0.72272042 2:0.52151262 3:2.0857143 4:0.034659866 5:0.07691417 6:-0.74068043 7:0.52385955 8:2.0867347 9:0.034425761 10:0.074905329 11:-0.225895 12:0.7457143 13:0.60000001 14:0.061247168 15:0.096067545 16:-0.78485035 17:0.50468187 18:2.1632653 19:0.035922532 20:0.074425772 
2 1:-0.45953458 2:0.62190478 3:1.1904762 4:0.056099777 5:0.066999824 6:-0.47204931 7:0.61326531 8:1.2142857 9:0.055627866 10:0.066275336 11:-0.22167101 12:0.7661905 13:0.49047621 14:0.080918374 15:0.077116034 16:-0.47404251 17:0.6244898 18:1.2040816 19:0.054690754 20:0.06580867 
2 1:-0.45953458 2:0.62190478 3:1.1904762 4:0.056099777 5:0.066999824 6:-0.47204931 7:0.61326531 8:1.2142857 9:0.055627866 10:0.066275336 11:-0.22167101 12:0.7661905 13:0.49047621 14:0.080918374 15:0.077116034 16:-0.47404251 17:0.6244898 18:1.2040816 19:0.054690754 20:0.06580867 
2 1:-0.72272042 2:0.52151262 3:2.0857143 4:0.034659866 5:0.07691417 6:-0.74068043 7:0.52385955 8:2.0867347 9:0.034425761 10:0.074905329 11:-0.225895 12:0.7457143 13:0.60000001 14:0.061247168 15:0.096067545 16:-0.78485035 17:0.50468187 18:2.1632653 19:0.035922532 20:0.074425772 
1.381250360849453 1:-0.59455455 2:0.56619049 3:1.5761905 4:0.040306125 5:0.057999012 6:-0.58394171 7:0.56938776 8:1.5714286 9:0.042091837 10:0.056580043 11:-0.17071929 12:0.79904764 13:0.44761906 14:0.074920639 15:0.0715838 16:-0.60345464 17:0.56377551 18:1.6071429 19:0.04123282 20:0.055949793 
0.7262626910457509 1:-0.46694664 2:0.61476192 3:1.1476191 4:0.047437644 5:0.055285752 6:-0.53742768 7:0.59030612 8:1.3826531 9:0.046452 10:0.05180397 11:-0.20800366 12:0.77238097 13:0.52380953 14:0.073945581 15:0.063700862 16:-0.42853786 17:0.62908164 18:1.0357143 19:0.05292066 20:0.056153791 
0.1058382255928394 1:-1.1369318 2:0.43710193 3:3.4333334 4:0.032653062 5:0.1470937 6:-1.2460284 7:0.43115247 8:3.7653062 9:0.030456061 10:0.14038165 11:-0.19383283 12:0.77380955 13:0.56666668 14:0.057925174 15:0.19792823 16:-1.0909902 17:0.45639256 18:3.2704082 19:0.032408372 20:0.14761735 
2 1:-0.72865155 2:0.52103642 3:2.1095239 4:0.036530614 5:0.086368029 6:-0.85217261 7:0.50885354 8:2.372449 9:0.035948563 10:0.084091666 11:-0.22866693 12:0.74666668 13:0.60952382 14:0.059421771 15:0.10709426 16:-0.72599975 17:0.51875751 18:2.0357143 19:0.037783737 20:0.088230354 
2 1:-0.72865155 2:0.52103642 3:2.1095239 4:0.036530614 5:0.086368029 6:-0.85217261 7:0.50885354 8:2.372449 9:0.035948563 10:0.084091666 11:-0.22866693 12:0.74666668 13:0.60952382 14:0.059421771 15:0.10709426 16:-0.72599975 17:0.51875751 18:2.0357143 19:0.037783737 20:0.088230354 
0.615092374532594 1:-1.0029476 2:0.45988797 3:2.8476191 4:0.036054424 5:0.18550782 6:-1.0414749 7:0.46404562 8:3.0102041 9:0.035831425 10:0.18190265 11:-0.15168207 12:0.79952383 13:0.42380953 14:0.061734697 15:0.23121162 16:-0.95273269 17:0.4677371 18:2.75 19:0.035519055 20:0.18597871 
-2 1:-0.63941645 2:0.62095239 3:1.4666667 4:0.1089229 5:0.0034943915 6:-0.69765724 7:0.61305524 8:1.5561225 9:0.10916025 10:0.001769327 11:-0.24335183 12:0.78476193 13:0.47619049 14:0.14916101 15:0.017358275 16:-0.57355286 17:0.65162064 18:1.367347 19:0.11704758 20:0.0044963875 
-1.81193582005128 1:-0.27338447 2:0.75238097 3:0.60952383 4:0.10430839 5:0.026483301 6:-0.37935011 7:0.69387756 8:0.85714286 9:0.092084031 10:0.023300431 11:-0.14149807 12:0.84380956 13:0.32380953 14:0.13447847 15:0.03188817 16:-0.2213664 17:0.78571429 18:0.48979591 19:0.11665712 20:0.028746971 
-2 1:-0.63941645 2:0.62095239 3:1.4666667 4:0.1089229 5:0.0034943915 6:-0.69765724 7:0.61305524 8:1.5561225 9:0.10916025 10:0.001769327 11:-0.24335183 12:0.78476193 13:0.47619049 14:0.14916101 15:0.017358275 16:-0.57355286 17:0.65162064 18:1.367347 19:0.11704758 20:0.0044963875 
-2 1:-0.80535252 2:0.57778713 3:2.1190476 4:0.079546488 5:0.00615448 6:-0.84956869 7:0.56803722 8:2.1683673 9:0.083454812 10:0.0050678177 11:-0.23586849 12:0.77619051 13:0.50476192 14:0.11719956 15:0.027251694 16:-0.7626981 17:0.61302522 18:2.0510205 19:0.089533011 20:0.0065901682 
-2 1:-0.80535252 2:0.57778713 3:2.1190476 4:0.079546488 5:0.00615448 6:-0.84956869 7:0.56803722 8:2.1683673 9:0.083454812 10:0.0050678177 11:-0.23586849 12:0.77619051 13:0.50476192 14:0.11719956 15:0.027251694 16:-0.7626981 17:0.61302522 18:2.0510205 19:0.089533011 20:0.0065901682 
-0.1720766002392381 1:-0.61973169 2:0.64000001 3:1.4857143 4:0.097199549 5:0.0060745017 6:-0.86949505 7:0.60579233 8:2.117347 9:0.095611207 10:-0.0015565689 11:-0.333705 12:0.73904763 13:0.64761906 14:0.11353742 15:0.017055192 16:-0.46122983 17:0.70408162 18:1.0816327 19:0.10810599 20:0.010699274 
-2 1:-0.80535252 2:0.57778713 3:2.1190476 4:0.079546488 5:0.00615448 6:-0.84956869 7:0.56803722 8:2.1683673 9:0.083454812 10:0.0050678177 11:-0.23586849 12:0.77619051 13:0.50476192 14:0.11719956 15:0.027251694 16:-0.7626981 17:0.61302522 18:2.0510205 19:0.089533011 20:0.0065901682 
-2 1:-0.63941645 2:0.62095239 3:1.4666667 4:0.1089229 5:0.0034943915 6:-0.69765724 7:0.61305524 8:1.5561225 9:0.10916025 10:0.001769327 11:-0.24335183 12:0.78476193 13:0.47619049 14:0.14916101 15:0.017358275 16:-0.57355286 17:0.65162064 18:1.367347 19:0.11704758 20:0.0044963875 
-2 1:-0.63941645 2:0.62095239 3:1.4666667 4:0.1089229 5:0.0034943915 6:-0.69765724 7:0.61305524 8:1.5561225 9:0.10916025 10:0.001769327 11:-0.24335183 12:0.78476193 13:0.47619049 14:0.14916101 15:0.017358275 16:-0.57355286 17:0.65162064 18:1.367347 19:0.11704758 20:0.0044963875 
-2 1:-0.80535252 2:0.57778713 3:2.1190476 4:0.079546488 5:0.00615448 6:-0.84956869 7:0.56803722 8:2.1683673 9:0.083454812 10:0.0050678177 11:-0.23586849 12:0.77619051 13:0.50476192 14:0.11719956 15:0.027251694 16:-0.7626981 17:0.61302522 18:2.0510205 19:0.089533011 20:0.0065901682 
-2 1:-0.61973169 2:0.64000001 3:1.4857143 4:0.097199549 5:0.0060745017 6:-0.86949505 7:0.60579233 8:2.117347 9:0.095611207 10:-0.0015565689 11:-0.333705 12:0.73904763 13:0.64761906 14:0.11353742 15:0.017055192 16:-0.46122983 17:0.70408162 18:1.0816327 19:0.10810599 20:0.010699274 
-2 1:-0.56487252 2:0.64904764 3:1.2619048 4:0.12125851 5:0.0076649812 6:-0.5607053 7:0.65876351 8:1.3163265 9:0.11804977 10:0.0069113538 11:-0.22145736 12:0.80380955 13:0.43809525 14:0.16308391 15:0.019313938 16:-0.52626477 17:0.66866748 18:1.2857143 19:0.12777229 20:0.0074074337 
-2 1:-0.86294246 2:0.57770309 3:2.1333334 4:0.078356012 5:0.0056160279 6:-0.95210226 7:0.56731693 8:2.3520408 9:0.078769264 10:0.0031254664 11:-0.24833955 12:0.77904764 13:0.53333335 14:0.11951248 15:0.025950523 16:-0.81548752 17:0.59579832 18:2.0408163 19:0.08172376 20:0.0064469649 
-2 1:-0.86294246 2:0.57770309 3:2.1333334 4:0.078356012 5:0.0056160279 6:-0.95210226 7:0.56731693 8:2.3520408 9:0.078769264 10:0.0031254664 11:-0.24833955 12:0.77904764 13:0.53333335 14:0.11951248 15:0.025950523 16:-0.81548752 17:0.59579832 18:2.0408163 19:0.08172376 20:0.0064469649 
-2 1:-0.56487252 2:0.64904764 3:1.2619048 4:0.12125851 5:0.0076649812 6:-0.5607053 7:0.65876351 8:1.3163265 9:0.11804977 10:0.0069113538 11:-0.22145736 12:0.80380955 13:0.43809525 14:0.16308391 15:0.019313938 16:-0.52626477 17:0.66866748 18:1.2857143 19:0.12777229 20:0.0074074337 
-1.742036886377683 1:-0.46558537 2:0.69761906 3:0.94761906 4:0.12006803 5:0.0065007799 6:-0.62502064 7:0.66509603 8:1.4642857 9:0.12060079 10:0.00066116552 11:-0.30995025 12:0.7514286 13:0.65714287 14:0.13373017 15:0.010921753 16:-0.43179961 17:0.71887755 18:0.70918368 19:0.12734277 20:0.0092202519 
-2 1:-0.46558537 2:0.69761906 3:0.94761906 4:0.12006803 5:0.0065007799 6:-0.62502064 7:0.66509603 8:1.4642857 9:0.12060079 10:0.00066116552 11:-0.30995025 12:0.7514286 13:0.65714287 14:0.13373017 15:0.010921753 16:-0.43179961 17:0.71887755 18:0.70918368 19:0.12734277 20:0.0092202519 
-0.2847215920199725 1:-0.56880415 2:0.64857145 3:1.2285715 4:0.12078232 5:0.007448427 6:-0.50769985 7:0.67193878 8:1.0969388 9:0.12307372 10:0.0086606435 11:-0.2193217 12:0.80714288 13:0.44285715 14:0.16385489 15:0.018463275 16:-0.57185379 17:0.65285116 18:1.4030612 19:0.12772023 20:0.0050551745 
-2 1:-0.56487252 2:0.64904764 3:1.2619048 4:0.12125851 5:0.0076649812 6:-0.5607053 7:0.65876351 8:1.3163265 9:0.11804977 10:0.0069113538 11:-0.22145736 12:0.80380955 13:0.43809525 14:0.16308391 15:0.019313938 16:-0.52626477 17:0.66866748 18:1.2857143 19:0.12777229 20:0.0074074337 
-2 1:-0.56487252 2:0.64904764 3:1.2619048 4:0.12125851 5:0.0076649812 6:-0.5607053 7:0.65876351 8:1.3163265 9:0.11804977 10:0.0069113538 11:-0.22145736 12:0.80380955 13:0.43809525 14:0.16308391 15:0.019313938 16:-0.52626477 17:0.66866748 18:1.2857143 19:0.12777229 20:0.0074074337 
-0.3664920554140101 1:-0.36233516 2:0.71837537 3:0.90476194 4:0.13862813 5:0.013746818 6:-0.57889606 7:0.68088235 8:1.7193878 9:0.14246668 10:0.0040799632 11:-0.31425156 12:0.7357143 13:0.75714288 14:0.13988663 15:0.018012468 16:-0.25716335 17:0.77142857 18:0.59183674 19:0.15255362 20:0.018671217 
-2 1:-0.56880415 2:0.64857145 3:1.2285715 4:0.12078232 5:0.007448427 6:-0.50769985 7:0.67193878 8:1.0969388 9:0.12307372 10:0.0086606435 11:-0.2193217 12:0.80714288 13:0.44285715 14:0.16385489 15:0.018463275 16:-0.57185379 17:0.65285116 18:1.4030612 19:0.12772023 20:0.0050551745 
-1.606613456975232 1:-0.46558537 2:0.69761906 3:0.94761906 4:0.12006803 5:0.0065007799 6:-0.62502064 7:0.66509603 8:1.4642857 9:0.12060079 10:0.00066116552 11:-0.30995025 12:0.7514286 13:0.65714287 14:0.13373017 15:0.010921753 16:-0.43179961 17:0.71887755 18:0.70918368 19:0.12734277 20:0.0092202519 
-2 1:-0.86294246 2:0.57770309 3:2.1333334 4:0.078356012 5:0.0056160279 6:-0.95210226 7:0.56731693 8:2.3520408 9:0.078769264 10:0.0031254664 11:-0.24833955 12:0.77904764 13:0.53333335 14:0.11951248 15:0.025950523 16:-0.81548752 17:0.59579832 18:2.0408163 19:0.08172376 20:0.0064469649 
-2 1:-0.86294246 2:0.57770309 3:2.1333334 4:0.078356012 5:0.0056160279 6:-0.95210226 7:0.56731693 8:2.3520408 9:0.078769264 10:0.0031254664 11:-0.24833955 12:0.77904764 13:0.53333335 14:0.11951248 15:0.025950523 16:-0.81548752 17:0.59579832 18:2.0408163 19:0.08172376 20:0.0064469649 
-1.591917868301122 1:-0.70208187 2:0.60333335 3:1.604762 4:0.097233563 5:0.0061121892 6:-0.6806113 7:0.6194778 8:1.6887755 9:0.096014685 10:0.0051714462 11:-0.21465034 12:0.80380955 13:0.43809525 14:0.14401362 15:0.022633499 16:-0.6838949 17:0.6222389 18:1.6479592 19:0.10326427 20:0.0054300441 
-0.4555952015310209 1:-0.39186584 2:0.73190478 3:0.89047621 4:0.15123584 5:0.006207308 6:-0.44167206 7:0.71683673 8:0.75 9:0.14108705 10:0.0082555079 11:-0.31822119 12:0.75476193 13:0.66190478 14:0.15227892 15:0.010826487 16:-0.52161905 17:0.69804922 18:1.3112245 19:0.15225427 20:0.0014530725 
-2 1:-0.56880415 2:0.64857145 3:1.2285715 4:0.12078232 5:0.007448427 6:-0.50769985 7:0.67193878 8:1.0969388 9:0.12307372 10:0.0086606435 11:-0.2193217 12:0.80714288 13:0.44285715 14:0.16385489 15:0.018463275 16:-0.57185379 17:0.65285116 18:1.4030612 19:0.12772023 20:0.0050551745 
-2 1:-0.56880415 2:0.64857145 3:1.2285715 4:0.12078232 5:0.007448427 6:-0.50769985 7:0.67193878 8:1.0969388 9:0.12307372 10:0.0086606435 11:-0.2193217 12:0.80714288 13:0.44285715 14:0.16385489 15:0.018463275 16:-0.57185379 17:0.65285116 18:1.4030612 19:0.12772023 20:0.0050551745 
-0.08710963527374245 1:-0.6992284 2:0.58579833 3:1.7285715 4:0.087426306 5:0.010764367 6:-0.42290481 7:0.6892857 8:1.0867347 9:0.11501717 10:0.020749069 11:-0.31130287 12:0.73904764 13:0.70476192 14:0.11557824 15:0.027222099 16:-1.0642682 17:0.52986195 18:2.6581633 19:0.083194503 20:-0.0012048646 
-0.4204280528045756 1:-0.712442 2:0.5717087 3:1.8952382 4:0.056587304 5:0.02119971 6:-1.3052107 7:0.48532414 8:3.494898 9:0.049875053 10:0.0030495049 11:-0.41473355 12:0.67190477 13:0.91904764 14:0.069977326 15:0.034227477 16:-0.42657821 17:0.65714286 18:1.0408163 19:0.067510933 20:0.032586194 
-0.007312764568318201 1:-0.41849057 2:0.68837537 3:1.1476191 4:0.11911566 5:0.015080543 6:-0.71488652 7:0.64423771 8:2.1326531 9:0.1195856 10:0.0032943428 11:-0.30026382 12:0.73714288 13:0.74285716 14:0.12827665 15:0.022307701 16:-0.27151617 17:0.75816327 18:0.64285715 19:0.13342097 20:0.022301576 
-1.522386827333853 1:-0.67149654 2:0.61579834 3:1.8285715 4:0.11465987 5:0.005788376 6:-0.65342713 7:0.63448381 8:1.7704082 9:0.12006716 10:0.0063153878 11:-0.23151113 12:0.77714288 13:0.51428572 14:0.14834468 15:0.024933234 16:-0.74898894 17:0.61946394 18:2.0867347 19:0.1251692 20:0.0027419318 
-0.1374664272999369 1:-0.54919673 2:0.64123251 3:1.504762 4:0.099410433 5:0.0097876379 6:-0.42713659 7:0.69009604 8:0.94897958 9:0.10917326 10:0.016943241 11:-0.3418611 12:0.7114286 13:0.7714286 14:0.11479593 15:0.020678902 16:-0.93571029 17:0.56965787 18:2.5051021 19:0.09429665 20:-0.0023692452 
-0.3825200859159376 1:-0.57595714 2:0.62532214 3:1.4666667 4:0.084829936 5:0.01467974 6:-0.97701869 7:0.55852341 8:2.5612245 9:0.075320178 10:0.00092232208 11:-0.37828282 12:0.70904763 13:0.83333335 14:0.10064626 15:0.023578243 16:-0.40898982 17:0.68163266 18:0.91836734 19:0.096509268 20:0.021880882 
-2 1:-0.67149654 2:0.61579834 3:1.8285715 4:0.11465987 5:0.005788376 6:-0.65342713 7:0.63448381 8:1.7704082 9:0.12006716 10:0.0063153878 11:-0.23151113 12:0.77714288 13:0.51428572 14:0.14834468 15:0.024933234 16:-0.74898894 17:0.61946394 18:2.0867347 19:0.1251692 20:0.0027419318 
