svm_type c_svc
kernel_type rbf
gamma 0.5
nr_class 2
total_sv 279
rho 0.0416129
label 1 -1
nr_sv 139 140
SV
2 1:-0.065742036 2:0.8857143 3:0.22857143 4:0.13657597 5:0.046221806 
2 1:-0.047600417 2:0.91666669 3:0.16666667 4:0.16973924 5:0.060887056 
2 1:-0.073663576 2:0.86904764 3:0.26190477 4:0.1171542 5:0.060317075 
2 1:-0.059445807 2:0.89047622 3:0.21904763 4:0.1727211 5:0.071008158 
2 1:-0.086323352 2:0.85714287 3:0.28571429 4:0.13698413 5:0.064032675 
2 1:-0.10782575 2:0.8309524 3:0.33809525 4:0.10921769 5:0.070217528 
2 1:-0.078047225 2:0.8714286 3:0.25714286 4:0.1465533 5:0.053916837 
2 1:-0.11485348 2:0.8309524 3:0.33809524 4:0.1193991 5:0.073017956 
2 1:-0.079147974 2:0.86666668 3:0.26666667 4:0.14095239 5:0.063179687 
2 1:-0.11418414 2:0.8214286 3:0.35714287 4:0.10302722 5:0.064764908 
2 1:-0.11405765 2:0.81666668 3:0.36666667 4:0.10370749 5:0.058333069 
2 1:-0.07488181 2:0.87380954 3:0.25238096 4:0.133322 5:0.068553782 
2 1:-0.084939355 2:0.86190478 3:0.27619048 4:0.12555556 5:0.067687062 
2 1:-0.07739239 2:0.86047622 3:0.2904762 4:0.12766441 5:0.087031006 
2 1:-0.094226717 2:0.8461905 3:0.31904762 4:0.1221542 5:0.060046633 
2 1:-0.06286037 2:0.89523812 3:0.20952382 4:0.15766441 5:0.059492721 
2 1:-0.063817138 2:0.89285716 3:0.21428572 4:0.14853742 5:0.050971667 
2 1:-0.050905613 2:0.91428573 3:0.17142858 4:0.16276644 5:0.052951472 
2 1:-0.064258512 2:0.88190478 3:0.24761905 4:0.1319161 5:0.056634818 
2 1:-0.10429432 2:0.8357143 3:0.32857144 4:0.11633787 5:0.061492301 
2 1:-0.096418119 2:0.84285716 3:0.31428572 4:0.11126985 5:0.066046822 
2 1:-0.082210412 2:0.85952382 3:0.28095239 4:0.13397959 5:0.064049685 
2 1:-0.10529341 2:0.82952383 3:0.35238096 4:0.10454649 5:0.06213411 
2 1:-0.08130874 2:0.86190479 3:0.27619048 4:0.13283448 5:0.060951564 
2 1:-0.083714735 2:0.85952384 3:0.28095239 4:0.13377552 5:0.086448796 
1.325135751980701 1:-0.098207307 2:0.84761907 3:0.30476191 4:0.10691611 5:0.080377756 
2 1:-0.094161143 2:0.84523811 3:0.30952382 4:0.1264966 5:0.06968192 
2 1:-0.075725643 2:0.86904765 3:0.26190477 4:0.13749434 5:0.063087171 
2 1:-0.068314823 2:0.87619049 3:0.24761905 4:0.12882087 5:0.057559694 
2 1:-0.062893252 2:0.88333337 3:0.23333334 4:0.1447279 5:0.064505683 
2 1:-0.093192243 2:0.85000002 3:0.30000001 4:0.10608844 5:0.05755928 
2 1:-0.071016688 2:0.88333336 3:0.23333334 4:0.17545352 5:0.066312062 
2 1:-0.030369663 2:0.93571431 3:0.12857143 4:0.20708618 5:0.074443903 
2 1:-0.10807111 2:0.8309524 3:0.33809525 4:0.10803855 5:0.061929953 
2 1:-0.11369104 2:0.82619051 3:0.34761905 4:0.1298753 5:0.056053565 
2 1:-0.07078332 2:0.87857145 3:0.24285715 4:0.13069162 5:0.047391822 
2 1:-0.057438843 2:0.90000002 3:0.20000001 4:0.14816327 5:0.050271437 
2 1:-0.098840838 2:0.84047621 3:0.31904763 4:0.1134127 5:0.065503428 
2 1:-0.065569912 2:0.88333337 3:0.23333334 4:0.14470523 5:0.07001394 
2 1:-0.089930138 2:0.85000002 3:0.30000001 4:0.12141724 5:0.064615267 
2 1:-0.062312024 2:0.88571432 3:0.22857144 4:0.14863947 5:0.070269601 
2 1:-0.10569213 2:0.83333335 3:0.33333335 4:0.097800458 5:0.062378867 
2 1:-0.10019884 2:0.83809526 3:0.32380953 4:0.10609978 5:0.061652225 
2 1:-0.055762992 2:0.8961905 3:0.21904762 4:0.16057824 5:0.072061936 
2 1:-0.074371889 2:0.86904764 3:0.26190477 4:0.13184808 5:0.065349217 
2 1:-0.10524887 2:0.82857145 3:0.34285715 4:0.10324264 5:0.054978526 
2 1:-0.13524207 2:0.80000002 3:0.40000001 4:0.092040821 5:0.11452696 
2 1:-0.069993016 2:0.87857146 3:0.24285715 4:0.13774377 5:0.063545134 
2 1:-0.067164095 2:0.89047622 3:0.21904762 4:0.15668936 5:0.057942129 
2 1:-0.097229392 2:0.84285716 3:0.31428572 4:0.10333334 5:0.065524192 
2 1:-0.074133041 2:0.88095242 3:0.23809524 4:0.15628119 5:0.057072951 
2 1:-0.056233463 2:0.89761908 3:0.20476191 4:0.15735829 5:0.061208209 
2 1:-0.10012606 2:0.85000002 3:0.30000001 4:0.11912699 5:0.072263294 
2 1:-0.073828054 2:0.8761905 3:0.24761905 4:0.1620635 5:0.062418185 
2 1:-0.10289471 2:0.84761907 3:0.30476191 4:0.11045352 5:0.064620156 
2 1:-0.13310215 2:0.79238096 3:0.43809525 4:0.07133787 5:0.09738274 
2 1:-0.062563276 2:0.88571432 3:0.22857143 4:0.1510431 5:0.048446769 
2 1:-0.066836487 2:0.87857146 3:0.24285715 4:0.14810659 5:0.059103277 
2 1:-0.075524301 2:0.86666669 3:0.26666667 4:0.12424037 5:0.060602416 
2 1:-0.09228373 2:0.84380956 3:0.32380954 4:0.094297059 5:0.060959828 
2 1:-0.065858435 2:0.88571431 3:0.22857144 4:0.14165533 5:0.061300848 
2 1:-0.070618558 2:0.87857146 3:0.24285715 4:0.14620183 5:0.068954828 
2 1:-0.084981982 2:0.85952383 3:0.28095238 4:0.11692744 5:0.06088905 
2 1:-0.096269642 2:0.84047622 3:0.31904763 4:0.10026078 5:0.068087143 
2 1:-0.10026521 2:0.83047621 3:0.36190477 4:0.10151928 5:0.095226739 
2 1:-0.065087842 2:0.88809527 3:0.22380953 4:0.16375285 5:0.053497342 
2 1:-0.086653258 2:0.85952383 3:0.28095239 4:0.12343538 5:0.06235009 
2 1:-0.10291116 2:0.83809525 3:0.32380953 4:0.12306123 5:0.067290684 
2 1:-0.095295741 2:0.84523812 3:0.30952382 4:0.10545352 5:0.070888279 
2 1:-0.091720035 2:0.83809527 3:0.32380954 4:0.12780046 5:0.080826914 
2 1:-0.071807388 2:0.8761905 3:0.24761905 4:0.12804989 5:0.055292241 
2 1:-0.049038759 2:0.90476193 3:0.19047619 4:0.15532881 5:0.056525251 
2 1:-0.046004 2:0.91428574 3:0.17142858 4:0.18081634 5:0.060301633 
2 1:-0.073917516 2:0.8714286 3:0.25714287 4:0.16562359 5:0.067827539 
2 1:-0.076596015 2:0.86666669 3:0.26666667 4:0.14154196 5:0.078733565 
2 1:-0.058708545 2:0.89380955 3:0.22380953 4:0.15746033 5:0.077895958 
2 1:-0.097375392 2:0.84047621 3:0.31904763 4:0.11749434 5:0.057192258 
2 1:-0.066419459 2:0.87857146 3:0.24285715 4:0.14477325 5:0.060685641 
2 1:-0.079899413 2:0.86904764 3:0.26190477 4:0.11971656 5:0.061981143 
2 1:-0.079943518 2:0.86190477 3:0.27619048 4:0.11671202 5:0.056299178 
2 1:-0.091602785 2:0.84285717 3:0.31428572 4:0.13045353 5:0.1013343 
2 1:-0.078576016 2:0.86428575 3:0.27142858 4:0.12518142 5:0.061111323 
2 1:-0.086327383 2:0.85476193 3:0.2904762 4:0.11960318 5:0.079363534 
2 1:-0.11904335 2:0.81666669 3:0.36666667 4:0.10318594 5:0.10609585 
2 1:-0.087182996 2:0.85476193 3:0.2904762 4:0.11484128 5:0.064022094 
2 1:-0.085211482 2:0.85476193 3:0.2904762 4:0.11744899 5:0.063090744 
2 1:-0.08434402 2:0.85714288 3:0.28571429 4:0.12417234 5:0.05763673 
2 1:-0.071213052 2:0.87380954 3:0.25238096 4:0.13035148 5:0.061398763 
2 1:-0.094316555 2:0.84285715 3:0.31428572 4:0.1253288 5:0.069294338 
2 1:-0.073835725 2:0.86904764 3:0.26190477 4:0.13250567 5:0.049741743 
2 1:-0.10642003 2:0.82380955 3:0.35238096 4:0.090566899 5:0.057932493 
2 1:-0.11106633 2:0.82142859 3:0.35714287 4:0.11125851 5:0.071174193 
2 1:-0.085959719 2:0.85476193 3:0.2904762 4:0.10787983 5:0.065921484 
2 1:-0.077143856 2:0.8666667 3:0.26666667 4:0.13680273 5:0.056886806 
2 1:-0.096548441 2:0.84523812 3:0.30952381 4:0.122483 5:0.077798423 
2 1:-0.046880092 2:0.91428574 3:0.17142858 4:0.17657597 5:0.066664171 
2 1:-0.06624946 2:0.88333336 3:0.23333334 4:0.1723016 5:0.065870905 
2 1:-0.074236555 2:0.87142859 3:0.25714286 4:0.12877551 5:0.071423918 
2 1:-0.032167018 2:0.93333336 3:0.13333334 4:0.19612246 5:0.067621029 
2 1:-0.07807936 2:0.87380955 3:0.25238096 4:0.15500001 5:0.052872265 
2 1:-0.074772978 2:0.86904764 3:0.26190477 4:0.12404762 5:0.055831207 
2 1:-0.090543728 2:0.84761907 3:0.30476191 4:0.10678005 5:0.072470089 
2 1:-0.11417679 2:0.80952383 3:0.38095239 4:0.083537419 5:0.08959981 
2 1:-0.084946693 2:0.84761907 3:0.30476191 4:0.13482994 5:0.09394499 
2 1:-0.094600186 2:0.84523812 3:0.30952382 4:0.098832206 5:0.058070987 
2 1:-0.052321879 2:0.90714288 3:0.18571429 4:0.1730499 5:0.060274195 
2 1:-0.073563879 2:0.87380955 3:0.25238096 4:0.14137189 5:0.08223552 
2 1:-0.08213801 2:0.85952385 3:0.28095239 4:0.13064627 5:0.076511626 
2 1:-0.10607856 2:0.8357143 3:0.32857144 4:0.12468254 5:0.078735219 
2 1:-0.084155834 2:0.85476193 3:0.2904762 4:0.13447847 5:0.073640261 
2 1:-0.083372022 2:0.8666667 3:0.26666668 4:0.14015874 5:0.078427966 
2 1:-0.081288216 2:0.86190478 3:0.27619048 4:0.13426304 5:0.068977287 
2 1:-0.064369976 2:0.88095241 3:0.23809525 4:0.15453516 5:0.060415718 
2 1:-0.11125102 2:0.80952383 3:0.38095239 4:0.080249438 5:0.08766181 
2 1:-0.092042515 2:0.84761906 3:0.30476191 4:0.10353742 5:0.06459236 
2 1:-0.078549279 2:0.86666669 3:0.26666667 4:0.1238322 5:0.064439816 
2 1:-0.07965172 2:0.86904764 3:0.26190477 4:0.15647393 5:0.051338164 
2 1:-0.091611782 2:0.84523812 3:0.30952382 4:0.11606577 5:0.075240919 
2 1:-0.082827083 2:0.85714288 3:0.2857143 4:0.11752835 5:0.062026687 
2 1:-0.077777538 2:0.86904764 3:0.26190477 4:0.1349093 5:0.07733722 
2 1:-0.068983764 2:0.87380954 3:0.25238096 4:0.1208957 5:0.055894912 
2 1:-0.10354032 2:0.83333335 3:0.33333334 4:0.10639456 5:0.06617746 
2 1:-0.075075955 2:0.87380954 3:0.25238096 4:0.15314059 5:0.067607295 
2 1:-0.046355343 2:0.90952383 3:0.18095238 4:0.17562359 5:0.065458531 
2 1:-0.11701083 2:0.82142859 3:0.35714286 4:0.10751701 5:0.06421233 
2 1:-0.083855036 2:0.86190478 3:0.27619048 4:0.11678005 5:0.059324398 
2 1:-0.064814926 2:0.88333336 3:0.23333334 4:0.15753969 5:0.066663568 
2 1:-0.082773848 2:0.85952383 3:0.28095239 4:0.14105443 5:0.062690377 
2 1:-0.063575301 2:0.89047622 3:0.21904763 4:0.16217688 5:0.053056497 
2 1:-0.099734118 2:0.83333335 3:0.33333334 4:0.10179139 5:0.071975734 
2 1:-0.083755931 2:0.85714288 3:0.28571429 4:0.11267574 5:0.058609445 
2 1:-0.082247441 2:0.86428574 3:0.27142858 4:0.14790251 5:0.059283536 
2 1:-0.09078314 2:0.85476195 3:0.2904762 4:0.13280047 5:0.064132524 
2 1:-0.097863735 2:0.83809526 3:0.32380953 4:0.10492064 5:0.067826849 
2 1:-0.067966345 2:0.88333336 3:0.23333334 4:0.14200681 5:0.063603538 
2 1:-0.070606144 2:0.88285717 3:0.25714287 4:0.14172336 5:0.047875253 
2 1:-0.083992053 2:0.85476193 3:0.2904762 4:0.10595239 5:0.056245578 
2 1:-0.072593151 2:0.86428574 3:0.27142858 4:0.13273244 5:0.07971669 
2 1:-0.096972644 2:0.84047621 3:0.31904763 4:0.10792517 5:0.087931417 
-2 1:-0.10302596 2:0.8357143 3:0.32857144 4:0.12468255 5:0.027564608 
-2 1:-0.1056184 2:0.83333336 3:0.33333334 4:0.15163266 5:0.027584049 
-2 1:-0.099895951 2:0.84047622 3:0.31904763 4:0.14420636 5:0.027283963 
-2 1:-0.12152062 2:0.82238098 3:0.36666668 4:0.15494332 5:0.01623251 
-2 1:-0.099395524 2:0.84047622 3:0.31904763 4:0.13053289 5:0.030001656 
-2 1:-0.084862348 2:0.85952383 3:0.28095239 4:0.16534015 5:0.030649091 
-2 1:-0.15272424 2:0.78761906 3:0.44761906 4:0.12510204 5:0.01958468 
-2 1:-0.084046664 2:0.85952383 3:0.28095239 4:0.17486395 5:0.0292311 
-2 1:-0.14668486 2:0.80714287 3:0.38571429 4:0.14493198 5:0.018734704 
-2 1:-0.092468658 2:0.85476193 3:0.2904762 4:0.15266441 5:0.031930945 
-2 1:-0.091155423 2:0.85571431 3:0.30000001 4:0.1880499 5:0.02777666 
-2 1:-0.08461535 2:0.85952383 3:0.28095239 4:0.13527211 5:0.028328941 
-2 1:-0.063226142 2:0.89047621 3:0.21904763 4:0.21340137 5:0.025649916 
-2 1:-0.067601512 2:0.88333336 3:0.23333334 4:0.16595239 5:0.03627885 
-2 1:-0.15531254 2:0.78190477 3:0.44761906 4:0.11928572 5:0.022590772 
-2 1:-0.074329458 2:0.87380955 3:0.25238096 4:0.20191611 5:0.03437614 
-2 1:-0.14049819 2:0.80809527 3:0.3952381 4:0.14770976 5:0.015367493 
-2 1:-0.094660987 2:0.85285717 3:0.32857144 4:0.19133788 5:0.024439842 
-2 1:-0.1397996 2:0.79714288 3:0.42857144 4:0.11893424 5:0.022188264 
-2 1:-0.073711061 2:0.87476193 3:0.26190477 4:0.18780046 5:0.035364476 
-2 1:-0.064102194 2:0.90476192 3:0.19047619 4:0.25573697 5:0.015415616 
-2 1:-0.096374626 2:0.84761906 3:0.30476191 4:0.18210885 5:0.021674631 
-2 1:-0.11198754 2:0.83047622 3:0.36190477 4:0.16380953 5:0.026924634 
-2 1:-0.090767646 2:0.86761908 3:0.27619049 4:0.20182541 5:0.011300427 
-2 1:-0.097416008 2:0.8461905 3:0.31904762 4:0.14170069 5:0.033609991 
-2 1:-0.093673566 2:0.85238098 3:0.29523811 4:0.12637189 5:0.032769511 
-2 1:-0.071713149 2:0.89523811 3:0.20952381 4:0.22163266 5:0.013037853 
-2 1:-0.11965193 2:0.8161905 3:0.39047621 4:0.16369615 5:0.027550761 
-2 1:-0.079832016 2:0.87380954 3:0.25238096 4:0.17506804 5:0.021016141 
-2 1:-0.076298245 2:0.87857144 3:0.24285715 4:0.22479593 5:0.015186418 
-2 1:-0.11652649 2:0.83285717 3:0.35714287 4:0.15545352 5:0.020958202 
-1.47022036734612 1:-0.1032826 2:0.84761907 3:0.30476191 4:0.20287983 5:0.014463879 
-2 1:-0.063162282 2:0.89761907 3:0.20476191 4:0.25980727 5:0.013874891 
-2 1:-0.11945951 2:0.82857145 3:0.34285715 4:0.18106577 5:0.016228755 
-2 1:-0.086842284 2:0.86428574 3:0.27142857 4:0.17250568 5:0.021832793 
-2 1:-0.087858935 2:0.85714288 3:0.28571429 4:0.16990931 5:0.029574742 
-2 1:-0.086153889 2:0.85714288 3:0.28571429 4:0.12079366 5:0.032100692 
-2 1:-0.11595719 2:0.82666669 3:0.38095239 4:0.17100908 5:0.026306913 
-2 1:-0.089168165 2:0.85333336 3:0.30476192 4:0.16792518 5:0.030186064 
-2 1:-0.082628295 2:0.86428573 3:0.27142858 4:0.18082767 5:0.024376235 
-2 1:-0.12820242 2:0.81380955 3:0.3952381 4:0.14969389 5:0.016973208 
-2 1:-0.11810992 2:0.8314286 3:0.37142858 4:0.16121316 5:0.021584256 
-2 1:-0.13582097 2:0.82000003 3:0.37142858 4:0.1493991 5:0.015099863 
-2 1:-0.063393058 2:0.89285715 3:0.21428572 4:0.24522676 5:0.021509044 
-2 1:-0.087252282 2:0.86904763 3:0.26190476 4:0.22534014 5:0.012400552 
-2 1:-0.11311117 2:0.82285717 3:0.40000001 4:0.14718822 5:0.029727035 
-2 1:-0.066698913 2:0.89523813 3:0.20952381 4:0.20219956 5:0.018150364 
-2 1:-0.089584733 2:0.85714288 3:0.28571429 4:0.14376418 5:0.037167464 
-0.03630103438876005 1:-0.067498585 2:0.88333335 3:0.23333334 4:0.26255103 5:0.032794916 
-2 1:-0.10111957 2:0.84523813 3:0.30952382 4:0.15003402 5:0.034311316 
-2 1:-0.086523925 2:0.87142859 3:0.25714287 4:0.1989796 5:0.013931601 
-2 1:-0.098072414 2:0.85809526 3:0.29523811 4:0.20055557 5:0.013842035 
-2 1:-0.050331437 2:0.91428573 3:0.17142857 4:0.27498867 5:0.01264101 
-2 1:-0.066098343 2:0.8857143 3:0.22857144 4:0.2288889 5:0.028135612 
-2 1:-0.074128335 2:0.87380954 3:0.25238096 4:0.19962586 5:0.029403869 
-2 1:-0.11813517 2:0.83333335 3:0.33333335 4:0.157483 5:0.014886525 
-2 1:-0.058150644 2:0.89761907 3:0.20476191 4:0.19041951 5:0.039484915 
-1.818614350245821 1:-0.1373978 2:0.8009524 3:0.46666668 4:0.12793651 5:0.023129488 
-2 1:-0.079271261 2:0.88190479 3:0.24761905 4:0.20826532 5:0.011970128 
-2 1:-0.089955497 2:0.85238098 3:0.2952381 4:0.17857144 5:0.034114928 
-2 1:-0.098919103 2:0.84285717 3:0.31428572 4:0.18585035 5:0.032472192 
-2 1:-0.060144206 2:0.89380955 3:0.22380953 4:0.17918368 5:0.037983697 
-2 1:-0.093082184 2:0.85571431 3:0.30000001 4:0.2011338 5:0.014136834 
-2 1:-0.088262499 2:0.85952383 3:0.28095239 4:0.19599774 5:0.029966991 
-2 1:-0.070916901 2:0.87857145 3:0.24285715 4:0.17509071 5:0.030574 
-2 1:-0.066692573 2:0.88809526 3:0.22380953 4:0.18148527 5:0.03815394 
-2 1:-0.10438605 2:0.85238098 3:0.29523811 4:0.1818821 5:0.017723859 
-2 1:-0.080752366 2:0.86428573 3:0.27142858 4:0.21679139 5:0.035957695 
-2 1:-0.069849442 2:0.87857145 3:0.24285715 4:0.2472449 5:0.03759929 
-2 1:-0.07512743 2:0.8761905 3:0.24761905 4:0.2143991 5:0.021920078 
-2 1:-0.12194422 2:0.82000002 3:0.37142858 4:0.14989797 5:0.031022169 
-2 1:-0.12849347 2:0.8057143 3:0.40000001 4:0.1019161 5:0.03081085 
-2 1:-0.076657825 2:0.8761905 3:0.24761905 4:0.22464854 5:0.014365695 
-2 1:-0.08780718 2:0.85714288 3:0.28571429 4:0.17045352 5:0.029768282 
-2 1:-0.071395687 2:0.8761905 3:0.24761906 4:0.17657597 5:0.029125399 
-2 1:-0.070348215 2:0.87857145 3:0.24285715 4:0.21468255 5:0.032979932 
-2 1:-0.10171014 2:0.83809527 3:0.32380953 4:0.14333334 5:0.032832031 
-2 1:-0.099017775 2:0.84142859 3:0.32857144 4:0.11637189 5:0.03201067 
-2 1:-0.084819691 2:0.86190478 3:0.27619048 4:0.1904762 5:0.026672487 
-2 1:-0.066510204 2:0.88333334 3:0.23333334 4:0.23549887 5:0.035219745 
-2 1:-0.057874209 2:0.89523811 3:0.20952382 4:0.2222449 5:0.033570066 
-2 1:-0.06969813 2:0.88809525 3:0.22380953 4:0.24597506 5:0.015313607 
-2 1:-0.079423247 2:0.86666669 3:0.26666667 4:0.20616781 5:0.031490611 
-2 1:-0.071442391 2:0.87619049 3:0.24761905 4:0.21297053 5:0.033951559 
-2 1:-0.07116903 2:0.87857145 3:0.24285715 4:0.2023923 5:0.026774249 
-2 1:-0.065751595 2:0.88428574 3:0.24285715 4:0.14405897 5:0.034214157 
-2 1:-0.081114564 2:0.86428574 3:0.27142858 4:0.1446372 5:0.033791003 
-2 1:-0.081362665 2:0.86666669 3:0.26666667 4:0.20392291 5:0.030835783 
-2 1:-0.10701664 2:0.83428575 3:0.34285715 4:0.13257371 5:0.02876809 
-2 1:-0.081058648 2:0.8661905 3:0.2904762 4:0.1809864 5:0.028435195 
-2 1:-0.10395742 2:0.8361905 3:0.36190477 4:0.16105443 5:0.028764231 
-2 1:-0.13752678 2:0.80000002 3:0.45714287 4:0.12874151 5:0.029458045 
-2 1:-0.082247441 2:0.86428574 3:0.27142858 4:0.19343538 5:0.030363927 
-2 1:-0.10430089 2:0.83809527 3:0.32380953 4:0.12641724 5:0.03516442 
-2 1:-0.084528881 2:0.86190478 3:0.27619048 4:0.16507937 5:0.038096713 
-2 1:-0.081138186 2:0.87380955 3:0.25238096 4:0.22665534 5:0.012539239 
-2 1:-0.078751084 2:0.86761907 3:0.27619048 4:0.17960318 5:0.030762977 
-2 1:-0.11788455 2:0.83000002 3:0.3857143 4:0.16193879 5:0.016743785 
-2 1:-0.10364963 2:0.83904764 3:0.33333334 4:0.1586508 5:0.025995964 
-2 1:-0.094193132 2:0.85809526 3:0.2952381 4:0.17665534 5:0.023047126 
-2 1:-0.079647598 2:0.86666668 3:0.26666667 4:0.22337869 5:0.030329801 
-2 1:-0.12151607 2:0.81666669 3:0.36666668 4:0.16908164 5:0.0251091 
-2 1:-0.12815036 2:0.80714288 3:0.38571429 4:0.10992064 5:0.026676821 
-2 1:-0.088225913 2:0.85476193 3:0.2904762 4:0.13128118 5:0.029275165 
-2 1:-0.081020062 2:0.86428574 3:0.27142858 4:0.19085035 5:0.035431117 
-2 1:-0.11215315 2:0.83571431 3:0.32857144 4:0.13744899 5:0.037218901 
-2 1:-0.10034098 2:0.85476193 3:0.2904762 4:0.19221089 5:0.013041753 
-2 1:-0.084837283 2:0.85952385 3:0.28095239 4:0.14046487 5:0.029263578 
-2 1:-0.084785816 2:0.86666668 3:0.26666667 4:0.20011339 5:0.02598126 
-2 1:-0.070210751 2:0.88809526 3:0.22380953 4:0.2437075 5:0.011723945 
-2 1:-0.062511662 2:0.89047621 3:0.21904763 4:0.24337869 5:0.034845104 
-2 1:-0.090260888 2:0.85904763 3:0.30476191 4:0.19231293 5:0.024432535 
-2 1:-0.077777538 2:0.86904764 3:0.26190477 4:0.20030613 5:0.027076859 
-2 1:-0.083913214 2:0.87000003 3:0.27142858 4:0.22213153 5:0.012778943 
-2 1:-0.074124868 2:0.87857145 3:0.24285715 4:0.19767575 5:0.028144091 
-2 1:-0.082854952 2:0.86190478 3:0.27619048 4:0.19151928 5:0.030384117 
-2 1:-0.082966036 2:0.87857145 3:0.24285715 4:0.18153062 5:0.01940378 
-2 1:-0.10342453 2:0.83571431 3:0.32857144 4:0.18361679 5:0.029679827 
-2 1:-0.10084427 2:0.83666668 3:0.33809524 4:0.12904762 5:0.034521753 
-2 1:-0.092647691 2:0.85238097 3:0.2952381 4:0.21253969 5:0.028597413 
-2 1:-0.079886464 2:0.87380955 3:0.25238096 4:0.20858278 5:0.014108124 
-2 1:-0.080569196 2:0.86428574 3:0.27142858 4:0.20354876 5:0.031581741 
-2 1:-0.085972257 2:0.85714288 3:0.28571429 4:0.16383221 5:0.031168173 
-2 1:-0.093730438 2:0.86523812 3:0.28095239 4:0.195805 5:0.012568973 
-2 1:-0.091159939 2:0.85952383 3:0.28095239 4:0.18425171 5:0.020349585 
-2 1:-0.10007573 2:0.84285716 3:0.31428572 4:0.17859411 5:0.025387449 
-2 1:-0.10556818 2:0.83571431 3:0.32857144 4:0.15409298 5:0.026719266 
-2 1:-0.14694872 2:0.79380954 3:0.42380953 4:0.13104309 5:0.022065922 
-2 1:-0.1126002 2:0.84714288 3:0.32857144 4:0.18320863 5:0.010920839 
-2 1:-0.10941897 2:0.82857146 3:0.34285715 4:0.13276645 5:0.027444312 
-2 1:-0.074492323 2:0.88190479 3:0.24761905 4:0.23479593 5:0.012470325 
-2 1:-0.070405615 2:0.87857145 3:0.24285715 4:0.1823923 5:0.034905391 
-2 1:-0.13122293 2:0.81904764 3:0.36190477 4:0.15417234 5:0.015828957 
-2 1:-0.091892304 2:0.85190478 3:0.31904763 4:0.18479593 5:0.026303075 
-2 1:-0.11171487 2:0.84000001 3:0.34285715 4:0.15267574 5:0.016576733 
-2 1:-0.11644468 2:0.82238098 3:0.36666667 4:0.13108845 5:0.031172923 
-2 1:-0.09894437 2:0.84523812 3:0.30952382 4:0.13345806 5:0.03085186 
-2 1:-0.10038852 2:0.85190477 3:0.31904762 4:0.15413833 5:0.019053971 
-2 1:-0.082166011 2:0.86190478 3:0.27619049 4:0.19063493 5:0.028475244 
-2 1:-0.086180904 2:0.85809527 3:0.2952381 4:0.16887756 5:0.033639068 
